{"learner":{"attributes":{},"feature_names":["county","address/zipcode","nearbyHomes/3/latitude","nearbyHomes/3/longitude","address/city","state","bedrooms","bathrooms","livingArea","lotAreaValue","yearBuilt","propertyTypeDimension","homeType","resoFacts/storiesTotal","priceHistory/0/price","mortgageRates/thirtyYearFixedRate","propertyTaxRate","resoFacts/propertyCondition","resoFacts/fireplaces","resoFacts/interiorFeatures/0","resoFacts/roofType","resoFacts/fencing","schools/1/rating","schools/2/level","resoFacts/communityFeatures/0","distance_to_nearest_university_miles","monthlyHoaFee","lastSoldPrice","resoFacts/pricePerSquareFoot","nearbyHomes_avg_price","price_change_rate","keyword_present"],"feature_types":["int","int","float","float","int","int","float","float","float","float","float","int","int","float","float","float","float","int","float","int","int","int","float","int","int","float","float","float","float","float","float","int"],"gradient_booster":{"model":{"gbtree_model_param":{"num_parallel_tree":"1","num_trees":"100"},"iteration_indptr":[0,1,2,3,4,5,6,7,8,9,10,11,12,13,14,15,16,17,18,19,20,21,22,23,24,25,26,27,28,29,30,31,32,33,34,35,36,37,38,39,40,41,42,43,44,45,46,47,48,49,50,51,52,53,54,55,56,57,58,59,60,61,62,63,64,65,66,67,68,69,70,71,72,73,74,75,76,77,78,79,80,81,82,83,84,85,86,87,88,89,90,91,92,93,94,95,96,97,98,99,100],"tree_info":[0,0,0,0,0,0,0,0,0,0,0,0,0,0,0,0,0,0,0,0,0,0,0,0,0,0,0,0,0,0,0,0,0,0,0,0,0,0,0,0,0,0,0,0,0,0,0,0,0,0,0,0,0,0,0,0,0,0,0,0,0,0,0,0,0,0,0,0,0,0,0,0,0,0,0,0,0,0,0,0,0,0,0,0,0,0,0,0,0,0,0,0,0,0,0,0,0,0,0,0],"trees":[{"base_weights":[-1.1900799E-2,-4.1967938E5,1.1898679E5,-6.371841E5,-2.9992134E5,-2.3888536E5,1.9743844E5,-2.0896934E5,-1.5303716E5,-3.626343E5,-2.3385064E5,-5.201838E5,-2.9412041E4,1.0547863E5,4.2185103E5,-1.18915336E5,-9.446444E4,-7.658092E4,-5.778679E4,-1.8580216E5,-4.3581278E5,-1.588586E5,1.5106345E4,2.049189E3,3.7384003E5,3.0110303E5,6.3835144E5,-1.5758531E5,-3.261379E5,-5.5691676E4,2.799695E5,-1.2501897E5,1.03696266E5,1.7248432E4,4.5144812E5,2.0728947E5,4.2798638E5,5.3876156E5,2.2982825E5,-3.1919889E4,-1.0200484E5,-4.20652E4,5.368635E3,4.5885273E4,1.18272664E5,-1.6394934E4,-6.8394625E4,6.853716E2,6.9257336E4,-2.8544053E4,4.255562E4,1.097316E5,1.6315506E5,3.8429152E4,8.3517984E4,1.1736168E5,1.728417E5,1.3598066E5,2.0846702E5],"categories":[],"categories_nodes":[],"categories_segments":[],"categories_sizes":[],"default_left":[0,0,0,0,0,0,0,0,0,0,0,0,0,0,0,0,0,0,0,0,0,0,0,0,0,0,0,0,0,0,0,0,0,0,0,0,0,0,0,0,0,0,0,0,0,0,0,0,0,0,0,0,0,0,0,0,0,0,0],"id":0,"left_children":[1,3,5,7,9,11,13,-1,-1,15,17,19,21,23,25,-1,-1,-1,-1,-1,27,-1,29,31,33,35,37,-1,39,41,43,45,47,49,51,53,55,57,-1,-1,-1,-1,-1,-1,-1,-1,-1,-1,-1,-1,-1,-1,-1,-1,-1,-1,-1,-1,-1],"loss_changes":[7.505427E13,8.4568116E12,3.2923766E13,5.2741695E11,8.1019064E11,1.2417775E13,1.9787598E13,0E0,0E0,5.0856985E10,4.6201307E10,4.8302024E11,2.7242537E12,1.8956901E13,7.1014055E12,0E0,0E0,0E0,0E0,0E0,3.3894905E11,0E0,2.1345438E12,6.3935207E12,5.25035E12,2.0657943E12,8.467251E11,0E0,4.3111154E10,5.6230923E11,2.8805444E11,1.5815357E12,3.5457805E12,5.036668E11,1.0360728E12,5.61211E11,1.8874787E11,4.7255126E11,0E0,0E0,0E0,0E0,0E0,0E0,0E0,0E0,0E0,0E0,0E0,0E0,0E0,0E0,0E0,0E0,0E0,0E0,0E0,0E0,0E0],"parents":[2147483647,0,0,1,1,2,2,3,3,4,4,5,5,6,6,9,9,10,10,11,11,12,12,13,13,14,14,20,20,22,22,23,23,24,24,25,25,26,26,28,28,29,29,30,30,31,31,32,32,33,33,34,34,35,35,36,36,37,37],"right_children":[2,4,6,8,10,12,14,-1,-1,16,18,20,22,24,26,-1,-1,-1,-1,-1,28,-1,30,32,34,36,38,-1,40,42,44,46,48,50,52,54,56,58,-1,-1,-1,-1,-1,-1,-1,-1,-1,-1,-1,-1,-1,-1,-1,-1,-1,-1,-1,-1,-1],"split_conditions":[8.05E5,5.09E5,-2.7735835E-2,3.85E5,6.8E5,-1.68676E-2,1.1822304E-1,-2.0896934E5,-1.5303716E5,6.235E5,7.52E5,-4.1936964E-2,-4.8850674E-2,5.150994E-3,-9.797564E-3,-1.18915336E5,-9.446444E4,-7.658092E4,-5.778679E4,-1.8580216E5,-5.2168E-1,-1.588586E5,1.2096132E0,-3.4629917E-1,-7.053559E-1,5.5786014E-1,-1.4824286E-3,-1.5758531E5,9.1754E4,4.1802946E-1,-3.3808686E-2,9.3117E4,-1.26938475E-2,2.271555E-2,-3.5933423E-1,-1.8673271E-2,1.3032286E0,4.5120963E-1,2.2982825E5,-3.1919889E4,-1.0200484E5,-4.20652E4,5.368635E3,4.5885273E4,1.18272664E5,-1.6394934E4,-6.8394625E4,6.853716E2,6.9257336E4,-2.8544053E4,4.255562E4,1.097316E5,1.6315506E5,3.8429152E4,8.3517984E4,1.1736168E5,1.728417E5,1.3598066E5,2.0846702E5],"split_indices":[27,27,28,27,27,8,8,0,0,27,27,28,28,28,28,0,0,0,0,0,8,0,8,8,8,8,28,0,1,8,28,1,28,28,8,28,8,8,0,0,0,0,0,0,0,0,0,0,0,0,0,0,0,0,0,0,0,0,0],"split_type":[0,0,0,0,0,0,0,0,0,0,0,0,0,0,0,0,0,0,0,0,0,0,0,0,0,0,0,0,0,0,0,0,0,0,0,0,0,0,0,0,0,0,0,0,0,0,0,0,0,0,0,0,0,0,0,0,0,0,0],"sum_hessian":[1.501E3,3.31E2,1.17E3,1.16E2,2.15E2,2.1E2,9.6E2,7.6E1,4E1,1.08E2,1.07E2,8.9E1,1.21E2,6.82E2,2.78E2,5.9E1,4.9E1,6.7E1,4E1,3.8E1,5.1E1,9E0,1.12E2,4.93E2,1.89E2,1.8E2,9.8E1,2.6E1,2.5E1,8.9E1,2.3E1,2.19E2,2.74E2,3.4E1,1.55E2,1.05E2,7.5E1,5.8E1,4E1,2E0,2.3E1,4.1E1,4.8E1,1.2E1,1.1E1,1.31E2,8.8E1,1.53E2,1.21E2,1.8E1,1.6E1,8.3E1,7.2E1,5.1E1,5.4E1,6.3E1,1.2E1,4E1,1.8E1],"tree_param":{"num_deleted":"0","num_feature":"32","num_nodes":"59","size_leaf_vector":"1"}},{"base_weights":[2.6635487E1,-2.9591338E5,8.393104E4,-4.383922E5,-2.043659E5,-2.61473E5,1.25828055E5,-1.4961336E5,-1.08214055E5,-2.3808723E5,-4.538749E4,-3.8301372E5,-9.007514E4,6.942996E4,2.91568E5,-7.863748E4,-6.306284E4,-1.29025016E5,-2.951441E5,-2.6584906E5,-2.129049E3,-1.8999791E4,2.3781297E5,1.9445361E5,4.5776144E5,-9.70859E4,-4.782541E4,-1.15964414E5,-1.7328722E5,-9.2389266E4,1.094941E5,-7.201472E4,1.3614308E5,-3.720467E4,2.99236E5,1.2690545E5,2.9051028E5,5.466527E5,3.556297E5,-5.5948965E4,-4.197703E3,-3.745496E4,-7.2103667E3,1.2551511E4,4.5800785E4,-5.4838773E4,-9.019427E3,3.2274994E4,8.418567E4,-2.8801156E4,3.1918104E4,6.832291E4,1.1219286E5,1.7545562E4,6.037031E4,6.752659E4,1.01387164E5,1.3766127E5,1.88925E5,7.964642E4,1.2165998E5],"categories":[],"categories_nodes":[],"categories_segments":[],"categories_sizes":[],"default_left":[0,0,0,0,0,0,0,0,0,0,0,0,0,0,0,0,0,0,0,0,0,0,0,0,0,0,0,0,0,0,0,0,0,0,0,0,0,0,0,0,0,0,0,0,0,0,0,0,0,0,0,0,0,0,0,0,0,0,0,0,0],"id":1,"left_children":[1,3,5,7,9,11,13,-1,-1,15,-1,17,19,21,23,-1,-1,-1,25,27,29,31,33,35,37,-1,-1,-1,39,41,43,45,47,49,51,53,55,57,59,-1,-1,-1,-1,-1,-1,-1,-1,-1,-1,-1,-1,-1,-1,-1,-1,-1,-1,-1,-1,-1,-1],"loss_changes":[3.73205E13,4.2408755E12,1.6978907E13,4.2453697E11,3.2908457E11,2.6111404E12,9.747806E12,0E0,0E0,2.7323793E10,0E0,1.7912719E11,8.342E11,1.1633661E13,4.1880272E12,0E0,0E0,0E0,6.0490777E10,1.3411431E11,3.828959E11,4.2291718E12,4.5551955E12,1.05968094E12,6.862196E11,0E0,0E0,0E0,2.264059E10,4.359481E10,4.3270373E10,1.7744073E12,5.1034194E11,4.3238746E11,1.09037643E12,5.0187665E11,1.3810952E11,7.574703E10,1.0825918E11,0E0,0E0,0E0,0E0,0E0,0E0,0E0,0E0,0E0,0E0,0E0,0E0,0E0,0E0,0E0,0E0,0E0,0E0,0E0,0E0,0E0,0E0],"parents":[2147483647,0,0,1,1,2,2,3,3,4,4,5,5,6,6,9,9,11,11,12,12,13,13,14,14,18,18,19,19,20,20,21,21,22,22,23,23,24,24,28,28,29,29,30,30,31,31,32,32,33,33,34,34,35,35,36,36,37,37,38,38],"right_children":[2,4,6,8,10,12,14,-1,-1,16,-1,18,20,22,24,-1,-1,-1,26,28,30,32,34,36,38,-1,-1,-1,40,42,44,46,48,50,52,54,56,58,60,-1,-1,-1,-1,-1,-1,-1,-1,-1,-1,-1,-1,-1,-1,-1,-1,-1,-1,-1,-1,-1,-1],"split_conditions":[8.05E5,5.471E5,-3.3434972E-2,3.5E5,7.14E5,2.0472845E-1,2.2842856E-1,-1.4961336E5,-1.08214055E5,6.5E5,-4.538749E4,-4.034868E-2,-4.034868E-2,-4.5471528E-4,-1.437556E-2,-7.863748E4,-6.306284E4,-1.29025016E5,-2.1239352E-1,-4.950467E-2,9.1928685E-1,1.025E6,-7.100959E-1,7.166509E-1,8.06E5,-9.70859E4,-4.782541E4,-1.15964414E5,9.5062E4,6.040754E-1,1.3032286E0,-5.631552E-1,1.25E6,2.6639547E-2,1.4306986E-2,-2.2784123E-2,1.0188273E0,-1.4824286E-3,1.43E6,-5.5948965E4,-4.197703E3,-3.745496E4,-7.2103667E3,1.2551511E4,4.5800785E4,-5.4838773E4,-9.019427E3,3.2274994E4,8.418567E4,-2.8801156E4,3.1918104E4,6.832291E4,1.1219286E5,1.7545562E4,6.037031E4,6.752659E4,1.01387164E5,1.3766127E5,1.88925E5,7.964642E4,1.2165998E5],"split_indices":[27,27,28,27,27,8,8,0,0,27,0,28,28,28,28,0,0,0,8,28,8,27,8,8,27,0,0,0,1,8,8,8,27,28,28,28,8,28,27,0,0,0,0,0,0,0,0,0,0,0,0,0,0,0,0,0,0,0,0,0,0],"split_type":[0,0,0,0,0,0,0,0,0,0,0,0,0,0,0,0,0,0,0,0,0,0,0,0,0,0,0,0,0,0,0,0,0,0,0,0,0,0,0,0,0,0,0,0,0,0,0,0,0,0,0,0,0,0,0,0,0,0,0,0,0],"sum_hessian":[1.501E3,3.31E2,1.17E3,1.28E2,2.03E2,1.26E2,1.044E3,6.9E1,5.9E1,1.22E2,8.1E1,7.3E1,5.3E1,7.8E2,2.64E2,6.1E1,6.1E1,4.5E1,2.8E1,1.7E1,3.6E1,5.12E2,2.68E2,1.68E2,9.6E1,2.2E1,6E0,6E0,1.1E1,2E1,1.6E1,3.82E2,1.3E2,4.9E1,2.19E2,1E2,6.8E1,4.9E1,4.7E1,1E1,1E0,1.3E1,7E0,7E0,9E0,1.04E2,2.78E2,1.1E2,2E1,3.5E1,1.4E1,1.14E2,1.05E2,5.3E1,4.7E1,3.1E1,3.7E1,2.7E1,2.2E1,1.9E1,2.8E1],"tree_param":{"num_deleted":"0","num_feature":"32","num_nodes":"61","size_leaf_vector":"1"}},{"base_weights":[1.0498752E2,-2.109559E5,5.8563566E4,-3.2740162E5,-1.5414958E5,-6.965279E4,1.244093E5,-1.1032304E5,-8.499224E4,-1.9111292E5,-1.2369348E5,-2.707913E5,1.1468133E4,3.1123447E4,2.0806312E5,-6.4540492E4,-4.9717633E4,-4.1791484E4,-2.9819605E4,-1.0366298E5,-2.2941316E5,-6.849179E4,8.044996E4,-2.290129E4,1.9170117E5,1.428811E5,2.9924434E5,-9.758595E4,-2.0097145E5,-1.767833E5,-5.2171727E4,-1.105544E5,1.29488086E5,3.4124638E5,-3.6403438E4,1.1426585E5,2.959894E5,1.0201306E5,2.9695672E5,2.1823289E5,3.5242806E5,-2.1484191E4,-6.190055E4,-5.4520062E4,-1.4636897E4,-2.0550428E4,-3.0879944E3,-9.163866E4,-1.8944084E4,2.2697023E4,5.840029E4,-6.0473184E4,1.5064484E5,-5.3548473E4,-4.287946E3,-1.5686342E4,4.311838E4,6.212831E4,1.1359905E5,2.8236916E4,9.927491E4,6.993295E4,1.1925353E5,5.2678445E4,1.0225028E5,9.217554E4,1.3777077E5],"categories":[],"categories_nodes":[],"categories_segments":[],"categories_sizes":[],"default_left":[0,0,0,0,0,0,0,0,0,0,0,0,0,0,0,0,0,0,0,0,0,0,0,0,0,0,0,0,0,0,0,0,0,0,0,0,0,0,0,0,0,0,0,0,0,0,0,0,0,0,0,0,0,0,0,0,0,0,0,0,0,0,0,0,0,0,0],"id":2,"left_children":[1,3,5,7,9,11,13,-1,-1,15,17,19,21,23,25,-1,-1,-1,-1,-1,27,29,31,33,35,37,39,-1,41,43,45,47,49,51,53,55,57,59,61,63,65,-1,-1,-1,-1,-1,-1,-1,-1,-1,-1,-1,-1,-1,-1,-1,-1,-1,-1,-1,-1,-1,-1,-1,-1,-1,-1],"loss_changes":[1.8544511E13,2.1059716E12,9.945488E12,8.437262E10,2.2515391E11,6.5297224E12,6.064818E12,0E0,0E0,2.4113054E10,3.3183498E10,2.7643347E11,1.5830238E12,3.2055275E12,2.394027E12,0E0,0E0,0E0,0E0,0E0,1.4459024E11,2.2583096E11,1.456756E12,1.3743693E12,7.172087E11,1.4872273E12,6.55533E11,0E0,2.8241297E10,1.9045089E9,7.930672E10,2.7639366E11,4.168425E11,9.7464195E11,8.3941956E11,2.774011E11,2.0820394E11,3.156147E11,2.2834263E11,3.060754E11,3.462419E11,0E0,0E0,0E0,0E0,0E0,0E0,0E0,0E0,0E0,0E0,0E0,0E0,0E0,0E0,0E0,0E0,0E0,0E0,0E0,0E0,0E0,0E0,0E0,0E0,0E0,0E0],"parents":[2147483647,0,0,1,1,2,2,3,3,4,4,5,5,6,6,9,9,10,10,11,11,12,12,13,13,14,14,20,20,21,21,22,22,23,23,24,24,25,25,26,26,28,28,29,29,30,30,31,31,32,32,33,33,34,34,35,35,36,36,37,37,38,38,39,39,40,40],"right_children":[2,4,6,8,10,12,14,-1,-1,16,18,20,22,24,26,-1,-1,-1,-1,-1,28,30,32,34,36,38,40,-1,42,44,46,48,50,52,54,56,58,60,62,64,66,-1,-1,-1,-1,-1,-1,-1,-1,-1,-1,-1,-1,-1,-1,-1,-1,-1,-1,-1,-1,-1,-1,-1,-1,-1,-1],"split_conditions":[8E5,4.82E5,-2.0448413E-2,3E5,6.65E5,-2.1239352E-1,-2.5623873E-1,-1.1032304E5,-8.499224E4,5.9E5,7.38E5,-7.100959E-1,3.836643E-1,1.6362412E-2,-6.34071E-3,-6.4540492E4,-4.9717633E4,-4.1791484E4,-2.9819605E4,-1.0366298E5,-4.6888676E-2,-3.61444E-2,-3.7452396E-2,-2.0261554E-2,-5.0390494E-1,4.3580455E-1,-8.204291E-2,-9.758595E4,1E0,9.5073E4,9.2E5,-5.8380377E-2,8.5292655E-1,5E0,-8.285965E-1,-8.7481165E-1,2.8881831E-2,3.5E0,7.166509E-1,1.5708413E-2,7.6735634E-3,-2.1484191E4,-6.190055E4,-5.4520062E4,-1.4636897E4,-2.0550428E4,-3.0879944E3,-9.163866E4,-1.8944084E4,2.2697023E4,5.840029E4,-6.0473184E4,1.5064484E5,-5.3548473E4,-4.287946E3,-1.5686342E4,4.311838E4,6.212831E4,1.1359905E5,2.8236916E4,9.927491E4,6.993295E4,1.1925353E5,5.2678445E4,1.0225028E5,9.217554E4,1.3777077E5],"split_indices":[27,27,28,27,27,8,8,0,0,27,27,8,8,28,28,0,0,0,0,0,28,28,28,28,8,8,8,0,4,1,27,28,8,12,8,8,28,7,8,28,28,0,0,0,0,0,0,0,0,0,0,0,0,0,0,0,0,0,0,0,0,0,0,0,0,0,0],"split_type":[0,0,0,0,0,0,0,0,0,0,0,0,0,0,0,0,0,0,0,0,0,0,0,0,0,0,0,0,0,0,0,0,0,0,0,0,0,0,0,0,0,0,0,0,0,0,0,0,0,0,0,0,0,0,0,0,0,0,0,0,0,0,0,0,0,0,0],"sum_hessian":[1.501E3,3.25E2,1.176E3,1.05E2,2.2E2,3.99E2,7.77E2,5.1E1,5.4E1,9.7E1,1.23E2,1.14E2,2.85E2,3.68E2,4.09E2,4.6E1,5.1E1,7.2E1,5.1E1,3.8E1,7.6E1,1.32E2,1.53E2,2.76E2,9.2E1,2.4E2,1.69E2,1.5E1,6.1E1,1.6E1,1.16E2,3.1E1,1.22E2,9E0,2.67E2,5.4E1,3.8E1,1.91E2,4.9E1,6.9E1,1E2,3E0,5.8E1,1.5E1,1E0,8.3E1,3.3E1,5E0,2.6E1,6.8E1,5.4E1,2E0,7E0,3.5E1,2.32E2,8E0,4.6E1,2E1,1.8E1,1.86E2,5E0,3.2E1,1.7E1,5.3E1,1.6E1,7.3E1,2.7E1],"tree_param":{"num_deleted":"0","num_feature":"32","num_nodes":"67","size_leaf_vector":"1"}},{"base_weights":[1.7268103E2,-7.160033E4,9.234293E4,-1.2013929E5,3.0540418E4,-2.7704615E4,1.49468E5,-2.1717E5,-8.736589E4,-9.592391E4,8.253323E4,-6.4937547E4,9.497349E4,1.24808984E5,2.6601825E5,-7.7040516E4,-1.7935017E5,2.364294E5,-9.484947E4,-2.0125706E5,-5.9815926E4,5.808651E4,1.7234447E5,-1.4906816E5,-4.576084E4,-2.8534867E4,1.1574311E5,7.461378E4,1.9711452E5,2.4121936E5,1.2797563E5,-6.2469707E4,-4.035917E4,-2.2194945E5,4.6458456E5,-1.14220734E5,7.3899043E3,-6.82324E4,-3.604126E4,-8.7105664E4,3.8021465E4,1.1394993E4,8.391115E4,1.4383361E5,8.159178E4,-5.3993688E4,-1.0088587E5,-8.253118E4,-1.944959E4,1.3943982E4,-4.8883023E4,6.829508E4,1.5793008E5,3.796205E4,1.30208234E5,1.7424545E5,3.0036016E5,6.067609E4,1.02115805E5,-6.5089316E3,-8.44405E4,2.9425408E4,1.5279612E5,-3.5522777E4,1.2459195E5,-3.441361E3,7.4200234E4,-3.0064412E4,-1.7191791E4,1.5255878E4,-7.793463E3,-5.7709463E3,1.10155E4,1.6098514E4,3.3066008E4,2.2035479E4,4.7808113E4,-3.546955E4,-1.3805037E4,-3.2638936E4,-1.7829703E4,-2.192449E4,-4.2340366E3,6.1409375E2,5.488016E3,1.0572857E4,2.9443023E4,4.845149E4,1.2428663E4,6.181699E2,2.6847652E4,3.1997232E4,4.5239926E4,3.894419E4,6.877267E4,2.9122502E4,9.397675E4],"categories":[],"categories_nodes":[],"categories_segments":[],"categories_sizes":[],"default_left":[0,0,0,0,0,0,0,0,0,0,0,0,0,0,0,0,0,0,0,0,0,0,0,0,0,0,0,0,0,0,0,0,0,0,0,0,0,0,0,0,0,0,0,0,0,0,0,0,0,0,0,0,0,0,0,0,0,0,0,0,0,0,0,0,0,0,0,0,0,0,0,0,0,0,0,0,0,0,0,0,0,0,0,0,0,0,0,0,0,0,0,0,0,0,0,0,0],"id":3,"left_children":[1,3,5,7,9,11,13,15,17,19,21,23,25,27,29,-1,31,33,35,37,39,41,43,45,47,49,51,53,55,57,-1,-1,-1,59,61,63,65,-1,-1,67,69,71,73,75,-1,-1,77,79,81,83,-1,85,87,89,91,93,95,-1,-1,-1,-1,-1,-1,-1,-1,-1,-1,-1,-1,-1,-1,-1,-1,-1,-1,-1,-1,-1,-1,-1,-1,-1,-1,-1,-1,-1,-1,-1,-1,-1,-1,-1,-1,-1,-1,-1,-1],"loss_changes":[9.942846E12,4.1930153E12,4.516524E12,1.8031816E12,1.8029562E12,9.790801E11,1.2486097E12,1.6977913E11,1.0643788E12,2.92231E11,4.1593366E11,2.5776764E11,1.3156372E11,1.3281673E12,2.0370476E11,0E0,7.166178E10,1.148929E12,8.346374E11,1.5156904E10,1.6617927E11,1.847357E11,7.7341E10,2.6523206E10,1.2900375E11,4.7948243E10,7.528677E10,4.4333623E11,3.0419452E11,1.9777874E11,0E0,0E0,0E0,4.156847E10,6.48134E10,8.3432676E11,3.105789E11,0E0,0E0,1.3008077E10,1.2818002E10,4.414504E10,7.287243E10,2.545012E10,0E0,0E0,7.883948E9,2.7508965E10,2.1863588E10,3.2476813E8,0E0,1.8245337E10,2.4714936E9,2.4771668E11,2.6106397E10,2.7813347E11,3.7749522E10,0E0,0E0,0E0,0E0,0E0,0E0,0E0,0E0,0E0,0E0,0E0,0E0,0E0,0E0,0E0,0E0,0E0,0E0,0E0,0E0,0E0,0E0,0E0,0E0,0E0,0E0,0E0,0E0,0E0,0E0,0E0,0E0,0E0,0E0,0E0,0E0,0E0,0E0,0E0,0E0],"parents":[2147483647,0,0,1,1,2,2,3,3,4,4,5,5,6,6,7,7,8,8,9,9,10,10,11,11,12,12,13,13,14,14,16,16,17,17,18,18,19,19,20,20,21,21,22,22,23,23,24,24,25,25,26,26,27,27,28,28,29,29,33,33,34,34,35,35,36,36,39,39,40,40,41,41,42,42,43,43,46,46,47,47,48,48,49,49,51,51,52,52,53,53,54,54,55,55,56,56],"right_children":[2,4,6,8,10,12,14,16,18,20,22,24,26,28,30,-1,32,34,36,38,40,42,44,46,48,50,52,54,56,58,-1,-1,-1,60,62,64,66,-1,-1,68,70,72,74,76,-1,-1,78,80,82,84,-1,86,88,90,92,94,96,-1,-1,-1,-1,-1,-1,-1,-1,-1,-1,-1,-1,-1,-1,-1,-1,-1,-1,-1,-1,-1,-1,-1,-1,-1,-1,-1,-1,-1,-1,-1,-1,-1,-1,-1,-1,-1,-1,-1,-1],"split_conditions":[-1.4936131E-2,1.4903319E-1,-5.015349E-1,-3.6891825E-2,-3.5583828E-2,2.084698E-2,3.3507907E-1,-4.950467E-2,-1.2220184E0,-4.6888676E-2,1.0188273E0,-9.3287694E-1,-8.0963635E-1,2.067854E-3,8.5292655E-1,-7.7040516E4,-4.5650467E-1,5E0,9.01E5,-5.2868098E-2,9.1928685E-1,-2.670812E-2,-2.3157839E-2,1.6007115E-3,-5.8735674E-3,8.2E1,3.1217542E-2,-2.1607623E-2,2.6639547E-2,-1.2955717E-3,1.2797563E5,-6.2469707E4,-4.035917E4,3.5E1,3E0,3.5E0,1.145E6,-6.82324E4,-3.604126E4,-3.8760398E-2,9.5037E4,4.6305966E-1,4.227695E-1,-3.1940117E-2,8.159178E4,-5.3993688E4,-1.0347874E0,-7.4564606E-1,7.95E5,3.2E1,-4.8883023E4,-6.117404E-1,9.208884E-2,-6.0604247E-3,-9.330422E-3,-1.7684336E-1,-4.9679488E-1,6.067609E4,1.02115805E5,-6.5089316E3,-8.44405E4,2.9425408E4,1.5279612E5,-3.5522777E4,1.2459195E5,-3.441361E3,7.4200234E4,-3.0064412E4,-1.7191791E4,1.5255878E4,-7.793463E3,-5.7709463E3,1.10155E4,1.6098514E4,3.3066008E4,2.2035479E4,4.7808113E4,-3.546955E4,-1.3805037E4,-3.2638936E4,-1.7829703E4,-2.192449E4,-4.2340366E3,6.1409375E2,5.488016E3,1.0572857E4,2.9443023E4,4.845149E4,1.2428663E4,6.181699E2,2.6847652E4,3.1997232E4,4.5239926E4,3.894419E4,6.877267E4,2.9122502E4,9.397675E4],"split_indices":[28,8,8,28,28,28,8,28,8,28,8,8,8,28,8,0,8,12,27,28,8,28,28,28,28,4,28,8,28,28,0,0,0,4,6,7,27,0,0,28,1,8,8,28,0,0,8,8,27,4,0,8,10,28,28,8,8,0,0,0,0,0,0,0,0,0,0,0,0,0,0,0,0,0,0,0,0,0,0,0,0,0,0,0,0,0,0,0,0,0,0,0,0,0,0,0,0],"split_type":[0,0,0,0,0,0,0,0,0,0,0,0,0,0,0,0,0,0,0,0,0,0,0,0,0,0,0,0,0,0,0,0,0,0,0,0,0,0,0,0,0,0,0,0,0,0,0,0,0,0,0,0,0,0,0,0,0,0,0,0,0,0,0,0,0,0,0,0,0,0,0,0,0,0,0,0,0,0,0,0,0,0,0,0,0,0,0,0,0,0,0,0,0,0,0,0,0],"sum_hessian":[1.501E3,8.44E2,6.57E2,5.72E2,2.72E2,2.12E2,4.45E2,1.43E2,4.29E2,7.9E1,1.93E2,1.63E2,4.9E1,3.69E2,7.6E1,6.7E1,7.6E1,9E0,4.2E2,1.9E1,6E1,1.53E2,4E1,2.9E1,1.34E2,7E0,4.2E1,2.19E2,1.5E2,6.8E1,8E0,4.4E1,3.2E1,3E0,6E0,3.53E2,6.7E1,1.3E1,6E0,4.7E1,1.3E1,5.5E1,9.8E1,3.3E1,7E0,1.6E1,1.3E1,5.5E1,7.9E1,6E0,1E0,2.1E1,2.1E1,1.33E2,8.6E1,1.25E2,2.5E1,5.1E1,1.7E1,1E0,2E0,1E0,5E0,3.51E2,2E0,6.3E1,4E0,3.1E1,1.6E1,1.1E1,2E0,2.5E1,3E1,4.7E1,5.1E1,7E0,2.6E1,9E0,4E0,2.4E1,3.1E1,6E0,7.3E1,2E0,4E0,1.1E1,1E1,2E1,1E0,7.9E1,5.4E1,4.3E1,4.3E1,7.1E1,5.4E1,2E0,2.3E1],"tree_param":{"num_deleted":"0","num_feature":"32","num_nodes":"97","size_leaf_vector":"1"}},{"base_weights":[5.453167E2,-4.9962832E4,6.5406777E4,-9.5739055E4,7.9418193E3,-7.49544E3,1.1489526E5,-1.5962122E5,-6.994074E4,-6.446827E4,5.2539668E4,-3.4164742E4,8.123637E4,9.301792E4,1.894145E5,-1.686791E5,1.7919428E5,3.5124084E5,-7.861041E4,-1.496888E5,-3.855164E4,2.6240625E4,1.0617664E5,-7.334338E4,-8.707326E3,-2.5322016E4,9.525874E4,7.0869734E4,1.9465356E5,1.5772598E5,7.888816E4,-6.359066E4,-1.5759989E5,6.311848E4,1.2838856E4,7.7503315E3,4.011695E5,-8.210725E4,9.9673555E4,-5.0285945E4,-3.130237E4,-5.798678E4,3.8330055E4,-1.3980452E3,4.9074855E4,8.3616914E4,1.4885381E5,-1.4455262E5,-5.8864203E4,-5.8256457E4,1.0237532E4,1.0632526E4,-4.1550574E4,7.78509E4,4.9742684E4,3.1032613E4,9.3975516E4,1.6318266E5,9.085244E4,1.1434705E5,5.925948E4,-6.2563223E4,-4.2696125E4,2.5011602E4,1.3441639E5,-3.9260438E4,-2.0100645E4,-2.2240047E4,-1.3172904E4,-6.2347754E3,1.3484844E4,-5.0874873E3,7.5491353E3,1.2838573E4,2.4313604E4,1.5948842E4,3.5911242E4,3.29505E4,5.6558746E4,-6.1814734E4,-2.8297953E4,-2.1343496E4,1.6194797E3,-2.0013818E4,-1.0122486E4,-2.1400664E3,1.5059294E4,1.3297876E3,5.2264565E3,1.6885932E4,3.092112E4,-7.880157E1,1.7227195E4,2.0235605E4,3.541775E4,4.0015094E4,5.8611508E4,1.3459976E4,3.5214703E4],"categories":[],"categories_nodes":[],"categories_segments":[],"categories_sizes":[],"default_left":[0,0,0,0,0,0,0,0,0,0,0,0,0,0,0,0,0,0,0,0,0,0,0,0,0,0,0,0,0,0,0,0,0,0,0,0,0,0,0,0,0,0,0,0,0,0,0,0,0,0,0,0,0,0,0,0,0,0,0,0,0,0,0,0,0,0,0,0,0,0,0,0,0,0,0,0,0,0,0,0,0,0,0,0,0,0,0,0,0,0,0,0,0,0,0,0,0,0,0],"id":4,"left_children":[1,3,5,7,9,11,13,15,17,19,21,23,25,27,29,31,33,35,37,39,41,43,45,47,49,51,53,55,57,59,-1,-1,61,-1,-1,-1,63,65,-1,-1,-1,67,69,71,73,75,77,79,81,83,85,87,-1,89,-1,91,93,95,-1,97,-1,-1,-1,-1,-1,-1,-1,-1,-1,-1,-1,-1,-1,-1,-1,-1,-1,-1,-1,-1,-1,-1,-1,-1,-1,-1,-1,-1,-1,-1,-1,-1,-1,-1,-1,-1,-1,-1,-1],"loss_changes":[4.9238686E12,2.2405647E12,2.3748068E12,7.6671694E11,1.2111581E12,6.3460835E11,6.214517E11,4.4453488E11,1.2618199E12,3.1006314E11,3.2447332E11,2.048231E11,9.505266E10,6.727737E11,1.6361377E11,2.9903028E10,8.018731E9,1.033658E11,5.0426243E11,9.343599E9,1.6807954E11,9.91525E10,6.0725002E10,7.500618E10,1.1887277E11,3.4027276E10,5.4638576E10,2.2904164E11,1.3443924E11,8.792323E10,0E0,0E0,5.516532E10,0E0,0E0,0E0,5.2044497E10,2.342891E11,0E0,0E0,0E0,1.6974414E10,9.933871E9,3.018495E10,1.3797212E10,5.0784436E10,1.7995071E10,2.07176E10,5.483841E10,5.00464E9,6.4219943E10,2.1741466E8,0E0,1.9215417E10,0E0,7.765206E10,9.360323E10,1.6145449E10,0E0,1.6929587E9,0E0,0E0,0E0,0E0,0E0,0E0,0E0,0E0,0E0,0E0,0E0,0E0,0E0,0E0,0E0,0E0,0E0,0E0,0E0,0E0,0E0,0E0,0E0,0E0,0E0,0E0,0E0,0E0,0E0,0E0,0E0,0E0,0E0,0E0,0E0,0E0,0E0,0E0,0E0],"parents":[2147483647,0,0,1,1,2,2,3,3,4,4,5,5,6,6,7,7,8,8,9,9,10,10,11,11,12,12,13,13,14,14,15,15,16,16,17,17,18,18,19,19,20,20,21,21,22,22,23,23,24,24,25,25,26,26,27,27,28,28,29,29,32,32,36,36,37,37,41,41,42,42,43,43,44,44,45,45,46,46,47,47,48,48,49,49,50,50,51,51,53,53,55,55,56,56,57,57,59,59],"right_children":[2,4,6,8,10,12,14,16,18,20,22,24,26,28,30,32,34,36,38,40,42,44,46,48,50,52,54,56,58,60,-1,-1,62,-1,-1,-1,64,66,-1,-1,-1,68,70,72,74,76,78,80,82,84,86,88,-1,90,-1,92,94,96,-1,98,-1,-1,-1,-1,-1,-1,-1,-1,-1,-1,-1,-1,-1,-1,-1,-1,-1,-1,-1,-1,-1,-1,-1,-1,-1,-1,-1,-1,-1,-1,-1,-1,-1,-1,-1,-1,-1,-1,-1],"split_conditions":[-1.4936131E-2,-4.5307733E-2,-3.960694E-1,5E0,-3.165983E-2,2.084698E-2,7.6735634E-3,8.06E5,-1.2220184E0,-4.6888676E-2,6.2422043E-1,-7.574961E-1,-8.0963635E-1,4.049944E-1,-7.019285E-2,2.46E5,9.9E1,9.0046E4,3.5E0,-5.35221E-2,9.60762E-1,-2.3811838E-2,-2.3438124E-2,-1.0786326E0,-9.330422E-3,8.2E1,3.822468E-2,-1.3536817E-1,7.841962E-1,1.7483555E-2,7.888816E4,-6.359066E4,-9.257669E-1,6.311848E4,1.2838856E4,7.7503315E3,3E0,-6.6269565E-1,9.9673555E4,-5.0285945E4,-3.130237E4,-3.8760398E-2,-4.3338392E-2,2.6634875E-1,1.2005E6,1.0946677E0,9.1928685E-1,1.0641676E-2,6.8327067E-3,-1.0825277E-2,-4.8612982E-1,9.3105E4,-4.1550574E4,-5.631552E-1,4.9742684E4,-4.0984266E-3,-8.20928E-3,-6.5275673E-3,9.085244E4,9.448704E-3,5.925948E4,-6.2563223E4,-4.2696125E4,2.5011602E4,1.3441639E5,-3.9260438E4,-2.0100645E4,-2.2240047E4,-1.3172904E4,-6.2347754E3,1.3484844E4,-5.0874873E3,7.5491353E3,1.2838573E4,2.4313604E4,1.5948842E4,3.5911242E4,3.29505E4,5.6558746E4,-6.1814734E4,-2.8297953E4,-2.1343496E4,1.6194797E3,-2.0013818E4,-1.0122486E4,-2.1400664E3,1.5059294E4,1.3297876E3,5.2264565E3,1.6885932E4,3.092112E4,-7.880157E1,1.7227195E4,2.0235605E4,3.541775E4,4.0015094E4,5.8611508E4,1.3459976E4,3.5214703E4],"split_indices":[28,8,8,12,28,28,28,27,8,28,8,8,8,8,8,27,4,1,7,28,8,28,28,8,28,4,28,8,8,28,0,0,8,0,0,0,6,8,0,0,0,28,28,8,27,8,8,25,28,28,8,1,0,8,0,28,28,28,0,28,0,0,0,0,0,0,0,0,0,0,0,0,0,0,0,0,0,0,0,0,0,0,0,0,0,0,0,0,0,0,0,0,0,0,0,0,0,0,0],"split_type":[0,0,0,0,0,0,0,0,0,0,0,0,0,0,0,0,0,0,0,0,0,0,0,0,0,0,0,0,0,0,0,0,0,0,0,0,0,0,0,0,0,0,0,0,0,0,0,0,0,0,0,0,0,0,0,0,0,0,0,0,0,0,0,0,0,0,0,0,0,0,0,0,0,0,0,0,0,0,0,0,0,0,0,0,0,0,0,0,0,0,0,0,0,0,0,0,0,0,0],"sum_hessian":[1.501E3,8.44E2,6.57E2,4.71E2,3.73E2,2.66E2,3.91E2,1.34E2,3.37E2,1.42E2,2.31E2,2.05E2,6.1E1,3.04E2,8.7E1,1.31E2,3E0,6E0,3.31E2,3.2E1,1.1E2,1.56E2,7.5E1,8E1,1.25E2,7E0,5.4E1,2.51E2,5.3E1,6.3E1,2.4E1,2.3E1,1.08E2,2E0,1E0,1E0,5E0,3.29E2,2E0,2.1E1,1.1E1,8.8E1,2.2E1,7.1E1,8.5E1,5.1E1,2.4E1,1.2E1,6.8E1,3.4E1,9.1E1,6E0,1E0,4.5E1,9E0,9.3E1,1.58E2,4.3E1,1E1,3.2E1,3.1E1,2.2E1,8.6E1,1E0,4E0,7.6E1,2.53E2,3.9E1,4.9E1,2E0,2E1,4.5E1,2.6E1,7.3E1,1.2E1,2.9E1,2.2E1,1.4E1,1E1,4E0,8E0,5.7E1,1.1E1,2.4E1,1E1,6.4E1,2.7E1,4E0,2E0,2.6E1,1.9E1,4.3E1,5E1,7.7E1,8.1E1,2.5E1,1.8E1,2E0,3E1],"tree_param":{"num_deleted":"0","num_feature":"32","num_nodes":"99","size_leaf_vector":"1"}},{"base_weights":[7.614972E2,-6.362212E4,2.7325076E4,-8.884242E4,-6.7795312E3,-4.3350337E3,7.0699914E4,-1.2974966E5,-6.9046516E4,-7.025381E4,1.7652814E4,-2.527829E4,6.839073E4,4.528936E4,1.1022678E5,-4.6735703E4,-1.1818407E5,-1.0725297E5,-4.6062215E4,-3.6611273E4,-5.2376895E4,1.0740034E3,6.4159707E4,-1.1509242E5,-1.7055918E4,1.6153848E4,9.78872E4,2.717315E4,9.152101E4,9.453638E4,1.8006166E5,-4.0462566E4,-2.7527363E4,-5.4433285E4,-2.9528318E4,-6.471329E4,-3.684658E4,-6.7427945E4,-3.690091E4,-1.5573701E4,2.600976E4,4.545195E4,8.954692E4,-4.6621723E4,-2.4522492E4,1.41404E5,-2.0692908E4,-9.4714375E4,3.026375E4,7.749639E4,5.186384E4,1.007324E4,4.6166953E4,8.1066586E4,6.7755414E4,8.040253E4,1.7885281E5,2.9130605E4,5.882637E4,-1.2889374E4,-2.0570092E4,-1.6350677E4,-7.700608E3,-9.733632E3,-2.2205715E4,-1.239066E4,-7.7825006E2,-1.0083084E4,1.4431382E3,1.9389583E3,1.0223728E4,6.9502505E3,1.6650291E4,7.998019E3,2.8071639E4,-2.6770951E4,6.306561E4,-6.794428E3,7.973885E4,-4.3037473E4,-1.0343367E4,1.4377513E3,1.9862248E4,1.6088932E4,2.8095518E4,-1.7854158E3,6.597675E3,2.3570732E3,1.7756875E4,1.9075293E4,3.120151E4,2.0574172E4,2.8617494E4,4.1132457E4,7.10375E4],"categories":[],"categories_nodes":[],"categories_segments":[],"categories_sizes":[],"default_left":[0,0,0,0,0,0,0,0,0,0,0,0,0,0,0,0,0,0,0,0,0,0,0,0,0,0,0,0,0,0,0,0,0,0,0,0,0,0,0,0,0,0,0,0,0,0,0,0,0,0,0,0,0,0,0,0,0,0,0,0,0,0,0,0,0,0,0,0,0,0,0,0,0,0,0,0,0,0,0,0,0,0,0,0,0,0,0,0,0,0,0,0,0,0,0],"id":5,"left_children":[1,3,5,7,9,11,13,15,17,19,21,23,25,27,29,-1,31,33,35,-1,37,39,41,43,45,47,49,51,53,55,57,-1,-1,-1,-1,59,61,63,65,67,69,71,73,-1,-1,75,77,79,81,83,-1,85,87,89,-1,91,93,-1,-1,-1,-1,-1,-1,-1,-1,-1,-1,-1,-1,-1,-1,-1,-1,-1,-1,-1,-1,-1,-1,-1,-1,-1,-1,-1,-1,-1,-1,-1,-1,-1,-1,-1,-1,-1,-1],"loss_changes":[2.570548E12,6.2874216E11,1.4614468E12,2.3721935E11,2.1215245E11,9.3996705E11,4.4598323E11,1.1098653E10,1.7683644E11,2.878595E10,7.626296E10,3.5177143E11,2.1104964E11,2.2783721E11,1.7473182E11,0E0,1.9382075E10,3.2557105E10,2.0132037E10,0E0,4.4997427E9,3.1124179E10,8.278319E9,4.107613E10,2.5650571E11,8.264774E10,1.2116794E11,6.4168608E10,8.982567E10,1.5841847E11,2.2174892E10,0E0,0E0,0E0,0E0,5.741773E8,1.6362766E10,8.264458E8,2.4597524E9,1.6706404E10,4.51157E9,2.5211085E9,3.6675584E7,0E0,0E0,1.7747372E11,2.4743975E11,1.2670812E10,4.1797165E10,2.2353183E10,0E0,2.0376637E10,4.6431322E10,2.266107E10,0E0,1.5785263E10,1.5906636E10,0E0,0E0,0E0,0E0,0E0,0E0,0E0,0E0,0E0,0E0,0E0,0E0,0E0,0E0,0E0,0E0,0E0,0E0,0E0,0E0,0E0,0E0,0E0,0E0,0E0,0E0,0E0,0E0,0E0,0E0,0E0,0E0,0E0,0E0,0E0,0E0,0E0,0E0],"parents":[2147483647,0,0,1,1,2,2,3,3,4,4,5,5,6,6,7,7,8,8,9,9,10,10,11,11,12,12,13,13,14,14,16,16,17,17,18,18,20,20,21,21,22,22,23,23,24,24,25,25,26,26,27,27,28,28,29,29,30,30,35,35,36,36,37,37,38,38,39,39,40,40,41,41,42,42,45,45,46,46,47,47,48,48,49,49,51,51,52,52,53,53,55,55,56,56],"right_children":[2,4,6,8,10,12,14,16,18,20,22,24,26,28,30,-1,32,34,36,-1,38,40,42,44,46,48,50,52,54,56,58,-1,-1,-1,-1,60,62,64,66,68,70,72,74,-1,-1,76,78,80,82,84,-1,86,88,90,-1,92,94,-1,-1,-1,-1,-1,-1,-1,-1,-1,-1,-1,-1,-1,-1,-1,-1,-1,-1,-1,-1,-1,-1,-1,-1,-1,-1,-1,-1,-1,-1,-1,-1,-1,-1,-1,-1,-1,-1],"split_conditions":[-2.6427835E-2,2.4501865E-1,-1.4603321E-1,-4.4272676E-2,-4.034868E-2,1.0289561E-2,-9.610707E-3,-5.560452E-1,-4.9679488E-1,-5.8380377E-2,1.2096132E0,5.74E5,-5.9041035E-1,4.689847E-1,4.5120963E-1,-4.6735703E4,-5.454981E-2,-1.0347874E0,-3.5116684E-2,-3.6611273E4,4E0,-3.0071545E-2,1.5177147E0,4E5,-1.2220184E0,-1.0347874E0,3.2525543E-2,-1.7084986E-2,1.3612939E0,1.1877845E-2,3.4E1,-4.0462566E4,-2.7527363E4,-5.4433285E4,-2.9528318E4,5E0,-2.503137E-1,1.7E1,9.1928685E-1,6.2422043E-1,4.8438978E-1,2.3188107E-2,1.07E2,-4.6621723E4,-2.4522492E4,5E0,3.5E0,-1.2220184E0,3.1217542E-2,-4.162145E-1,5.186384E4,5.660275E-2,-7.3875547E-3,1.33E6,6.7755414E4,-1.2955717E-3,6.2527776E-2,2.9130605E4,5.882637E4,-1.2889374E4,-2.0570092E4,-1.6350677E4,-7.700608E3,-9.733632E3,-2.2205715E4,-1.239066E4,-7.7825006E2,-1.0083084E4,1.4431382E3,1.9389583E3,1.0223728E4,6.9502505E3,1.6650291E4,7.998019E3,2.8071639E4,-2.6770951E4,6.306561E4,-6.794428E3,7.973885E4,-4.3037473E4,-1.0343367E4,1.4377513E3,1.9862248E4,1.6088932E4,2.8095518E4,-1.7854158E3,6.597675E3,2.3570732E3,1.7756875E4,1.9075293E4,3.120151E4,2.0574172E4,2.8617494E4,4.1132457E4,7.10375E4],"split_indices":[28,8,8,28,28,28,28,8,8,28,8,27,8,8,8,0,28,8,28,0,6,28,8,27,8,8,28,28,8,28,4,0,0,0,0,12,8,19,8,8,8,25,21,0,0,12,7,8,28,8,0,8,8,27,0,28,8,0,0,0,0,0,0,0,0,0,0,0,0,0,0,0,0,0,0,0,0,0,0,0,0,0,0,0,0,0,0,0,0,0,0,0,0,0,0],"split_type":[0,0,0,0,0,0,0,0,0,0,0,0,0,0,0,0,0,0,0,0,0,0,0,0,0,0,0,0,0,0,0,0,0,0,0,0,0,0,0,0,0,0,0,0,0,0,0,0,0,0,0,0,0,0,0,0,0,0,0,0,0,0,0,0,0,0,0,0,0,0,0,0,0,0,0,0,0,0,0,0,0,0,0,0,0,0,0,0,0,0,0,0,0,0,0],"sum_hessian":[1.501E3,4.38E2,1.063E3,3.03E2,1.35E2,6.15E2,4.48E2,9.7E1,2.06E2,3.7E1,9.8E1,4.78E2,1.37E2,2.74E2,1.74E2,2.6E1,7.1E1,7.6E1,1.3E2,8E0,2.9E1,7.3E1,2.5E1,3.9E1,4.39E2,5E1,8.7E1,1.98E2,7.6E1,1.44E2,3E1,4.1E1,3E1,6E0,7E1,4.1E1,8.9E1,1.3E1,1.6E1,4.4E1,2.9E1,1.6E1,9E0,1.6E1,2.3E1,9E0,4.3E2,5E0,4.5E1,7E1,1.7E1,1.05E2,9.3E1,7.2E1,4E0,1.25E2,1.9E1,6E0,2.4E1,8E0,3.3E1,3.3E1,5.6E1,3E0,1E1,1.4E1,2E0,2.3E1,2.1E1,9E0,2E1,6E0,1E1,1E0,8E0,2E0,7E0,4.28E2,2E0,2E0,3E0,2.7E1,1.8E1,3E1,4E1,4.5E1,6E1,2.4E1,6.9E1,4.3E1,2.9E1,7.3E1,5.2E1,1.3E1,6E0],"tree_param":{"num_deleted":"0","num_feature":"32","num_nodes":"95","size_leaf_vector":"1"}},{"base_weights":[6.79268E2,-2.065222E4,4.4116562E4,-4.657887E4,1.2254032E4,-2.11943E3,6.852544E4,1.09312164E5,-4.9303793E4,-3.209223E4,3.379503E4,-6.661047E4,9.301566E3,4.651323E4,8.8438914E4,-1.0418575E5,2.1569495E5,-5.896028E4,-3.6713757E3,-7.625918E4,-1.902555E4,2.3355848E4,6.906761E4,-1.3745998E5,-4.748056E4,-2.1475435E3,6.0266035E4,2.636108E4,7.359403E4,7.750812E4,1.3281428E5,7.8675376E3,-4.691933E4,-2.8720688E3,2.548353E5,-6.061781E4,6.379108E4,-1.1877039E4,5.7639293E4,-3.4157098E4,-1.9643688E4,-3.1597523E4,1.5654163E4,3.666892E3,3.762141E4,4.7609863E4,1.0898016E5,-1.1013867E4,-4.6040562E4,-5.6132312E4,-1.5053833E4,-1.3787351E4,4.4460347E3,3.824425E4,2.4311984E4,1.5255554E4,3.89543E4,6.0718258E4,9.658565E4,6.451762E4,1.3364444E5,6.042539E4,1.5066616E5,1.1800013E4,8.70207E4,-2.9063723E4,-1.5898538E4,-6.6108364E3,-6.879428E2,-1.2347687E4,-7.281772E3,-5.259244E3,6.3659243E3,-4.909244E3,3.5390813E3,8.846232E3,1.613213E4,1.1718539E4,2.6896363E4,2.5166893E4,4.982651E4,-1.9077023E4,-1.0918222E4,-5.1001724E3,-7.980188E2,-8.835998E3,-5.4265674E2,1.2514538E4,5.5224033E1,4.2020627E2,1.2232766E4,3.5797754E3,1.514597E4,1.5142815E4,5.71241E3,1.9355117E4,1.0525257E4,1.8030582E4,3.288138E4,7.741121E3,2.0645766E4,3.1058955E4,5.8887605E4,2.4060232E4,6.179944E3,4.625214E4,9.972413E3],"categories":[],"categories_nodes":[],"categories_segments":[],"categories_sizes":[],"default_left":[0,0,0,0,0,0,0,0,0,0,0,0,0,0,0,0,0,0,0,0,0,0,0,0,0,0,0,0,0,0,0,0,0,0,0,0,0,0,0,0,0,0,0,0,0,0,0,0,0,0,0,0,0,0,0,0,0,0,0,0,0,0,0,0,0,0,0,0,0,0,0,0,0,0,0,0,0,0,0,0,0,0,0,0,0,0,0,0,0,0,0,0,0,0,0,0,0,0,0,0,0,0,0,0,0,0,0],"id":6,"left_children":[1,3,5,7,9,11,13,15,17,19,21,23,25,27,29,31,33,35,37,39,41,43,45,47,49,51,53,55,57,59,61,-1,-1,-1,63,65,-1,67,-1,-1,-1,69,71,73,75,77,79,-1,-1,81,83,85,87,89,-1,91,93,95,97,99,101,103,105,-1,-1,-1,-1,-1,-1,-1,-1,-1,-1,-1,-1,-1,-1,-1,-1,-1,-1,-1,-1,-1,-1,-1,-1,-1,-1,-1,-1,-1,-1,-1,-1,-1,-1,-1,-1,-1,-1,-1,-1,-1,-1,-1,-1],"loss_changes":[1.3926376E12,8.605448E11,5.587867E11,2.4497147E11,4.261765E11,1.27306514E11,1.3790845E11,2.4959736E11,2.443439E11,8.280795E10,1.0885195E11,2.8712288E10,8.5903606E10,8.319484E10,7.1680655E10,3.1337595E10,6.4159285E10,2.1907151E11,1.5973738E11,5.920096E9,5.0197762E10,6.53057E10,5.3048934E10,2.4298045E9,5.3270487E9,9.347804E9,9.25261E9,1.2132475E10,1.3673824E10,9.201254E10,3.2248824E10,0E0,0E0,0E0,3.4148188E10,1.2090815E11,0E0,9.199008E9,0E0,0E0,0E0,4.8840786E9,6.0975037E9,1.6315519E10,1.6151036E10,1.3030351E10,1.9023053E10,0E0,0E0,1.8815386E8,9.954214E7,8.203535E9,1.2381776E10,1.3420012E9,0E0,5.2511447E9,8.675E9,2.1185004E9,3.862102E9,1.720877E10,2.6843087E10,4.648407E9,5.1721667E9,0E0,0E0,0E0,0E0,0E0,0E0,0E0,0E0,0E0,0E0,0E0,0E0,0E0,0E0,0E0,0E0,0E0,0E0,0E0,0E0,0E0,0E0,0E0,0E0,0E0,0E0,0E0,0E0,0E0,0E0,0E0,0E0,0E0,0E0,0E0,0E0,0E0,0E0,0E0,0E0,0E0,0E0,0E0,0E0],"parents":[2147483647,0,0,1,1,2,2,3,3,4,4,5,5,6,6,7,7,8,8,9,9,10,10,11,11,12,12,13,13,14,14,15,15,16,16,17,17,18,18,19,19,20,20,21,21,22,22,23,23,24,24,25,25,26,26,27,27,28,28,29,29,30,30,34,34,35,35,37,37,41,41,42,42,43,43,44,44,45,45,46,46,49,49,50,50,51,51,52,52,53,53,55,55,56,56,57,57,58,58,59,59,60,60,61,61,62,62],"right_children":[2,4,6,8,10,12,14,16,18,20,22,24,26,28,30,32,34,36,38,40,42,44,46,48,50,52,54,56,58,60,62,-1,-1,-1,64,66,-1,68,-1,-1,-1,70,72,74,76,78,80,-1,-1,82,84,86,88,90,-1,92,94,96,98,100,102,104,106,-1,-1,-1,-1,-1,-1,-1,-1,-1,-1,-1,-1,-1,-1,-1,-1,-1,-1,-1,-1,-1,-1,-1,-1,-1,-1,-1,-1,-1,-1,-1,-1,-1,-1,-1,-1,-1,-1,-1,-1,-1,-1,-1,-1],"split_conditions":[-9.610707E-3,-4.5307733E-2,-5.015349E-1,-1.2220184E0,-3.1379543E-2,-9.6131706E-1,9.3001E4,5E0,8.6E5,-4.6888676E-2,7.166509E-1,-1.2220184E0,2.8881831E-2,1.4E6,3.6470422E-1,3.5E1,9.0046E4,3.5E0,1.257E6,-6.249123E-2,8.150064E-1,-2.1849839E-2,-2.2784123E-2,6E1,1.5054414E-2,-3.631284E-3,-6.508456E-1,-1.9495711E-3,1.6E6,2.271555E-2,-7.5552803E-3,7.8675376E3,-4.691933E4,-2.8720688E3,3E0,-4.4272676E-2,6.379108E4,9.35E5,5.7639293E4,-3.4157098E4,-1.9643688E4,4E0,-4.2871248E-2,8.267287E-2,3.2085901E-1,1.45E6,1.162213E0,-1.1013867E4,-4.6040562E4,2.058799E-1,9.3105E4,-7.053559E-1,1.0641676E-2,1.8E1,2.4311984E4,2.2368854E-1,5.150994E-3,1.089647E0,3.4692811E-3,-4.2332453E-1,-2.7638382E-1,9.3955E4,9.5073E4,1.1800013E4,8.70207E4,-2.9063723E4,-1.5898538E4,-6.6108364E3,-6.879428E2,-1.2347687E4,-7.281772E3,-5.259244E3,6.3659243E3,-4.909244E3,3.5390813E3,8.846232E3,1.613213E4,1.1718539E4,2.6896363E4,2.5166893E4,4.982651E4,-1.9077023E4,-1.0918222E4,-5.1001724E3,-7.980188E2,-8.835998E3,-5.4265674E2,1.2514538E4,5.5224033E1,4.2020627E2,1.2232766E4,3.5797754E3,1.514597E4,1.5142815E4,5.71241E3,1.9355117E4,1.0525257E4,1.8030582E4,3.288138E4,7.741121E3,2.0645766E4,3.1058955E4,5.8887605E4,2.4060232E4,6.179944E3,4.625214E4,9.972413E3],"split_indices":[28,8,8,8,28,8,1,12,27,28,8,8,28,27,8,4,1,7,27,28,8,28,28,4,28,28,8,28,27,28,28,0,0,0,6,28,0,27,0,0,0,6,28,8,8,27,8,0,0,9,1,8,25,19,0,8,28,9,28,8,8,1,1,0,0,0,0,0,0,0,0,0,0,0,0,0,0,0,0,0,0,0,0,0,0,0,0,0,0,0,0,0,0,0,0,0,0,0,0,0,0,0,0,0,0,0,0],"split_type":[0,0,0,0,0,0,0,0,0,0,0,0,0,0,0,0,0,0,0,0,0,0,0,0,0,0,0,0,0,0,0,0,0,0,0,0,0,0,0,0,0,0,0,0,0,0,0,0,0,0,0,0,0,0,0,0,0,0,0,0,0,0,0,0,0,0,0,0,0,0,0,0,0,0,0,0,0,0,0,0,0,0,0,0,0,0,0,0,0,0,0,0,0,0,0,0,0,0,0,0,0,0,0,0,0,0,0],"sum_hessian":[1.501E3,1.007E3,4.94E2,5.63E2,4.44E2,1.71E2,3.23E2,9E0,5.54E2,1.45E2,2.99E2,2.5E1,1.46E2,1.55E2,1.68E2,3E0,6E0,4.57E2,9.7E1,3.2E1,1.13E2,2.32E2,6.7E1,4E0,2.1E1,1.2E2,2.6E1,9E1,6.5E1,1.37E2,3.1E1,1E0,2E0,1E0,5E0,4.55E2,2E0,9.4E1,3E0,5E0,2.7E1,8.3E1,3E1,9.8E1,1.34E2,4.5E1,2.2E1,1E0,3E0,1.6E1,5E0,4.3E1,7.7E1,1.4E1,1.2E1,4.9E1,4.1E1,4.4E1,2.1E1,1.13E2,2.4E1,7E0,2.4E1,1E0,4E0,7.7E1,3.78E2,4.5E1,4.9E1,3.4E1,4.9E1,4E0,2.6E1,2.8E1,7E1,9.1E1,4.3E1,3.9E1,6E0,1.7E1,5E0,1E1,6E0,4E0,1E0,1.8E1,2.5E1,7E0,7E1,1E0,1.3E1,4.6E1,3E0,2.5E1,1.6E1,3.7E1,7E0,7E0,1.4E1,1.2E1,1.01E2,1.8E1,6E0,4E0,3E0,2.3E1,1E0],"tree_param":{"num_deleted":"0","num_feature":"32","num_nodes":"107","size_leaf_vector":"1"}},{"base_weights":[7.839722E2,-2.8701814E4,1.665781E4,-5.8044164E4,-1.2479104E4,3.3912205E3,4.7616703E4,-1.01702195E5,-5.036211E4,-4.259582E4,1.5341344E3,-1.167282E4,2.7907797E4,4.1099504E4,1.10300984E5,-1.6751123E4,-1.1214761E5,-9.220155E4,-4.411457E4,-6.096574E4,-2.7983209E4,-5.503933E3,4.1506742E4,-7.578166E4,-6.7866133E3,-7.421071E2,4.299103E4,3.2829312E4,9.162153E4,8.604134E4,4.714874E4,-3.518054E4,-1.2699906E4,-2.0591812E4,-3.7846273E4,-4.9370543E4,-2.6635713E4,-7.771867E4,-4.8881785E4,-3.065032E4,8.551925E3,-9.035253E3,1.7326523E4,2.3327412E4,5.5587895E4,-2.8618502E4,-1.2838612E4,-8.116313E3,5.103285E4,-3.8799836E4,9.839792E3,3.6949406E4,9.22921E4,1.5560817E4,4.008836E4,7.203682E4,1.536115E5,4.465502E4,3.017661E4,-1.2365335E4,-1.7960541E4,-2.178404E3,-9.918883E3,-2.4504744E4,-9.201647E3,-1.5204222E4,-4.7392876E3,-1.4080056E4,-7.884062E3,5.2203125E3,-9.4435004E2,-3.7245652E3,2.0542954E3,8.856263E3,2.8767898E3,2.5003928E3,9.224278E3,2.5973252E3,1.8179943E4,-2.9055066E3,3.475987E4,-1.8733055E4,-6.379584E3,-8.712631E2,9.749572E3,7.7489023E3,1.4320106E4,1.2164541E4,2.9981281E4,2.6026416E3,9.702123E3,1.2564714E4,3.4961626E3,1.4315557E4,2.634786E4,1.6243851E4,5.3322676E4,1.621872E4,4.227313E3],"categories":[],"categories_nodes":[],"categories_segments":[],"categories_sizes":[],"default_left":[0,0,0,0,0,0,0,0,0,0,0,0,0,0,0,0,0,0,0,0,0,0,0,0,0,0,0,0,0,0,0,0,0,0,0,0,0,0,0,0,0,0,0,0,0,0,0,0,0,0,0,0,0,0,0,0,0,0,0,0,0,0,0,0,0,0,0,0,0,0,0,0,0,0,0,0,0,0,0,0,0,0,0,0,0,0,0,0,0,0,0,0,0,0,0,0,0,0,0],"id":7,"left_children":[1,3,5,7,9,11,13,15,17,19,21,23,25,27,29,-1,31,33,35,37,39,41,43,45,47,49,51,53,55,57,-1,-1,-1,-1,-1,59,61,63,65,67,69,71,73,75,77,-1,-1,79,-1,81,83,85,87,89,91,93,95,97,-1,-1,-1,-1,-1,-1,-1,-1,-1,-1,-1,-1,-1,-1,-1,-1,-1,-1,-1,-1,-1,-1,-1,-1,-1,-1,-1,-1,-1,-1,-1,-1,-1,-1,-1,-1,-1,-1,-1,-1,-1],"loss_changes":[7.034931E11,2.4965821E11,4.0111093E11,5.759474E10,1.4355646E11,2.5330908E11,1.15164774E11,6.6731377E9,3.801691E10,2.7284685E10,6.5778323E10,1.3261654E11,1.1281867E11,1.0855193E11,1.7172267E10,0E0,2.5433866E9,7.340835E9,1.1730321E10,5.7157386E9,6.3036047E9,1.6200259E10,7.6627804E9,1.5326691E10,9.452728E10,3.702958E10,4.7523725E10,2.8332687E10,3.3854358E10,7.549436E9,0E0,0E0,0E0,0E0,0E0,6.7757507E9,4.1182392E9,8.5131264E8,9.848668E8,2.893828E9,5.724383E8,9.372284E9,2.2643768E9,1.6349635E9,3.9443292E9,0E0,0E0,7.7752205E10,0E0,6.963749E9,2.0885359E10,1.723446E10,3.068592E9,7.806761E9,7.7758464E9,7.3281864E9,9.577316E9,1.2508928E9,0E0,0E0,0E0,0E0,0E0,0E0,0E0,0E0,0E0,0E0,0E0,0E0,0E0,0E0,0E0,0E0,0E0,0E0,0E0,0E0,0E0,0E0,0E0,0E0,0E0,0E0,0E0,0E0,0E0,0E0,0E0,0E0,0E0,0E0,0E0,0E0,0E0,0E0,0E0,0E0,0E0],"parents":[2147483647,0,0,1,1,2,2,3,3,4,4,5,5,6,6,7,7,8,8,9,9,10,10,11,11,12,12,13,13,14,14,16,16,17,17,18,18,19,19,20,20,21,21,22,22,23,23,24,24,25,25,26,26,27,27,28,28,29,29,35,35,36,36,37,37,38,38,39,39,40,40,41,41,42,42,43,43,44,44,47,47,49,49,50,50,51,51,52,52,53,53,54,54,55,55,56,56,57,57],"right_children":[2,4,6,8,10,12,14,16,18,20,22,24,26,28,30,-1,32,34,36,38,40,42,44,46,48,50,52,54,56,58,-1,-1,-1,-1,-1,60,62,64,66,68,70,72,74,76,78,-1,-1,80,-1,82,84,86,88,90,92,94,96,98,-1,-1,-1,-1,-1,-1,-1,-1,-1,-1,-1,-1,-1,-1,-1,-1,-1,-1,-1,-1,-1,-1,-1,-1,-1,-1,-1,-1,-1,-1,-1,-1,-1,-1,-1,-1,-1,-1,-1,-1,-1],"split_conditions":[-2.3998694E-2,-3.1904402E-1,-7.3875547E-3,-9.115468E-1,-3.8760398E-2,-1.4824286E-3,5.9918505E-3,4.82E5,-5.567095E-2,-5.09061E-2,1.162213E0,5.59E5,-5.9041035E-1,7.166509E-1,1.5708413E-2,-1.6751123E4,9.5073E4,9.2886E4,-4.434696E-1,-6.0342375E-2,8.35E5,1.058E6,-3.109926E-2,4.5E5,3.5E0,-9.6131706E-1,3.2525543E-2,-1.689813E-2,1.162213E0,1.4310816E-1,4.714874E4,-3.518054E4,-1.2699906E4,-2.0591812E4,-3.7846273E4,7.14E5,6E0,7.3E1,3.6511278E-1,6.05E5,3.7E1,9.4563E4,-2.7175263E-2,2.3557184E-2,2.5E0,-2.8618502E4,-1.2838612E4,1.33E6,5.103285E4,-1.0786326E0,2.6639547E-2,-3.13119E-1,9.1302E4,9.2886E4,3.5E0,-1.87667E-2,3.3E1,6.9E1,3.017661E4,-1.2365335E4,-1.7960541E4,-2.178404E3,-9.918883E3,-2.4504744E4,-9.201647E3,-1.5204222E4,-4.7392876E3,-1.4080056E4,-7.884062E3,5.2203125E3,-9.4435004E2,-3.7245652E3,2.0542954E3,8.856263E3,2.8767898E3,2.5003928E3,9.224278E3,2.5973252E3,1.8179943E4,-2.9055066E3,3.475987E4,-1.8733055E4,-6.379584E3,-8.712631E2,9.749572E3,7.7489023E3,1.4320106E4,1.2164541E4,2.9981281E4,2.6026416E3,9.702123E3,1.2564714E4,3.4961626E3,1.4315557E4,2.634786E4,1.6243851E4,5.3322676E4,1.621872E4,4.227313E3],"split_indices":[28,8,8,8,28,28,28,27,28,28,8,27,8,8,28,0,1,1,8,28,27,27,28,27,7,8,28,28,8,8,0,0,0,0,0,27,24,4,10,27,4,1,28,25,7,0,0,27,0,8,28,8,1,1,7,28,4,4,0,0,0,0,0,0,0,0,0,0,0,0,0,0,0,0,0,0,0,0,0,0,0,0,0,0,0,0,0,0,0,0,0,0,0,0,0,0,0,0,0],"split_type":[0,0,0,0,0,0,0,0,0,0,0,0,0,0,0,0,0,0,0,0,0,0,0,0,0,0,0,0,0,0,0,0,0,0,0,0,0,0,0,0,0,0,0,0,0,0,0,0,0,0,0,0,0,0,0,0,0,0,0,0,0,0,0,0,0,0,0,0,0,0,0,0,0,0,0,0,0,0,0,0,0,0,0,0,0,0,0,0,0,0,0,0,0,0,0,0,0,0,0],"sum_hessian":[1.501E3,5.25E2,9.76E2,1.86E2,3.39E2,6.84E2,2.92E2,2.6E1,1.6E2,1.07E2,2.32E2,4.24E2,2.6E2,2.66E2,2.6E1,6E0,2E1,1.9E1,1.41E2,4.6E1,6.1E1,1.98E2,3.4E1,2.9E1,3.95E2,9E1,1.7E2,2.3E2,3.6E1,1.9E1,7E0,1.8E1,2E0,1.3E1,6E0,1.07E2,3.4E1,1.7E1,2.9E1,5.7E1,4E0,1.72E2,2.6E1,1.6E1,1.8E1,1.7E1,1.2E1,3.93E2,2E0,1.9E1,7.1E1,1.53E2,1.7E1,6.9E1,1.61E2,2.9E1,7E0,6E0,1.3E1,6.3E1,4.4E1,9E0,2.5E1,1.5E1,2E0,2.7E1,2E0,1E1,4.7E1,2E0,2E0,1.42E2,3E1,9E0,1.7E1,6E0,1E1,2E0,1.6E1,3.89E2,4E0,7E0,1.2E1,4.6E1,2.5E1,7.7E1,7.6E1,3E0,1.4E1,5E1,1.9E1,1.51E2,1E1,1.3E1,1.6E1,2E0,5E0,4E0,2E0],"tree_param":{"num_deleted":"0","num_feature":"32","num_nodes":"99","size_leaf_vector":"1"}},{"base_weights":[6.3633325E2,-1.0617272E4,2.355148E4,-2.8631902E4,3.27578E3,-2.7090525E3,3.6570926E4,8.428409E4,-3.119127E4,-3.7865453E4,1.0365283E4,-3.3304285E4,6.3950723E3,3.334326E4,8.262961E4,-7.24451E4,1.6180305E5,-5.2555383E4,-2.284759E4,-5.8890098E4,-2.5709004E4,-1.0823495E4,1.7322986E4,-9.383484E4,-2.3423197E4,9.433491E1,3.5155207E4,2.8264654E4,6.1268547E4,3.9116703E4,6.3722168E4,7.1232285E3,-3.3726863E4,-7.6552314E3,1.9727605E5,-3.044795E4,-7.645574E4,-6.473921E4,-1.9434596E4,-2.2255523E4,-4.087042E4,-3.2250996E4,-5.4746504E3,-1.8165941E4,-6.7669443E3,1.5431882E4,9.0832234E4,-5.069011E3,-3.2653562E4,-3.79074E4,-9.993175E3,1.0223989E4,-6.1997583E3,2.0681826E4,1.4719256E4,2.182211E4,3.8676633E4,4.3495574E4,9.628451E4,4.940049E4,2.452355E4,1.0465838E4,6.683304E4,-1.4302209E4,-7.536661E3,-3.815483E4,-2.0398225E4,-1.5619374E4,-2.7591969E4,-8.816117E3,-4.2039775E3,-5.025247E3,-1.2935878E4,-5.6397812E3,-1.075191E4,-3.4875647E3,4.9215815E3,3.5478616E3,1.4541677E4,4.9726504E3,2.9412719E4,-4.1562505E3,-1.2106198E4,-4.2111753E3,1.2413063E3,2.4820801E2,7.032345E3,1.4430531E4,-2.5944814E3,8.673015E3,1.8791688E3,8.989839E3,4.7596143E3,9.000964E3,1.9922773E4,1.0105629E4,2.0982484E4,1.0009075E4,3.1019467E4,1.548446E4,3.7563564E3],"categories":[],"categories_nodes":[],"categories_segments":[],"categories_sizes":[],"default_left":[0,0,0,0,0,0,0,0,0,0,0,0,0,0,0,0,0,0,0,0,0,0,0,0,0,0,0,0,0,0,0,0,0,0,0,0,0,0,0,0,0,0,0,0,0,0,0,0,0,0,0,0,0,0,0,0,0,0,0,0,0,0,0,0,0,0,0,0,0,0,0,0,0,0,0,0,0,0,0,0,0,0,0,0,0,0,0,0,0,0,0,0,0,0,0,0,0,0,0,0,0],"id":8,"left_children":[1,3,5,7,9,11,13,15,17,19,21,23,25,27,29,31,33,35,37,39,41,43,45,47,49,51,53,55,57,-1,59,-1,-1,-1,61,63,65,67,69,-1,71,73,-1,-1,75,77,79,-1,-1,81,83,85,87,89,-1,91,93,95,97,99,-1,-1,-1,-1,-1,-1,-1,-1,-1,-1,-1,-1,-1,-1,-1,-1,-1,-1,-1,-1,-1,-1,-1,-1,-1,-1,-1,-1,-1,-1,-1,-1,-1,-1,-1,-1,-1,-1,-1,-1,-1],"loss_changes":[3.875829E11,2.5237422E11,1.6933839E11,1.2949707E11,1.6664489E11,4.6172553E10,4.6451982E10,1.3321668E11,7.544904E10,1.995513E10,7.198357E10,2.0530188E10,2.3191572E10,4.237476E10,1.0654499E10,1.8051092E10,5.15477E10,6.107716E10,4.3207295E10,5.236343E9,2.0956979E9,2.3999666E10,4.961629E10,3.9352238E9,6.234972E9,6.821628E9,3.6153876E9,1.6932094E10,2.5061917E10,0E0,3.497902E8,0E0,0E0,0E0,1.7074586E10,4.673794E9,1.5818719E10,3.1506186E9,1.5181373E10,0E0,1.4569677E8,6.779228E8,0E0,0E0,1.2911903E10,4.2195476E10,3.19352E9,0E0,0E0,3.825029E8,1.1438609E9,5.0726733E9,9.191225E9,1.361151E9,0E0,7.577518E9,2.206117E10,6.205493E9,3.2642826E9,3.3369702E8,0E0,0E0,0E0,0E0,0E0,0E0,0E0,0E0,0E0,0E0,0E0,0E0,0E0,0E0,0E0,0E0,0E0,0E0,0E0,0E0,0E0,0E0,0E0,0E0,0E0,0E0,0E0,0E0,0E0,0E0,0E0,0E0,0E0,0E0,0E0,0E0,0E0,0E0,0E0,0E0,0E0],"parents":[2147483647,0,0,1,1,2,2,3,3,4,4,5,5,6,6,7,7,8,8,9,9,10,10,11,11,12,12,13,13,14,14,15,15,16,16,17,17,18,18,19,19,20,20,21,21,22,22,23,23,24,24,25,25,26,26,27,27,28,28,30,30,34,34,35,35,36,36,37,37,38,38,40,40,41,41,44,44,45,45,46,46,49,49,50,50,51,51,52,52,53,53,55,55,56,56,57,57,58,58,59,59],"right_children":[2,4,6,8,10,12,14,16,18,20,22,24,26,28,30,32,34,36,38,40,42,44,46,48,50,52,54,56,58,-1,60,-1,-1,-1,62,64,66,68,70,-1,72,74,-1,-1,76,78,80,-1,-1,82,84,86,88,90,-1,92,94,96,98,100,-1,-1,-1,-1,-1,-1,-1,-1,-1,-1,-1,-1,-1,-1,-1,-1,-1,-1,-1,-1,-1,-1,-1,-1,-1,-1,-1,-1,-1,-1,-1,-1,-1,-1,-1,-1,-1,-1,-1,-1,-1],"split_conditions":[-9.610707E-3,-1.9224843E-1,-5.2168E-1,-1.2220184E0,7.2E5,-9.020668E-1,5.744502E-1,5E0,-7.053559E-1,3.1E5,-3.0071545E-2,-1.2220184E0,2.9722687E-2,2.084698E-2,-1.5401615E0,3.5E1,9.0046E4,7.38E5,-5.707238E-2,7.843764E-2,6.05E5,-5.2868098E-2,1.3612939E0,6E1,3.0955672E-3,1.9418986E-1,-6.508456E-1,-7.3875547E-3,-2.917889E-1,3.9116703E4,3.286396E-2,7.1232285E3,-3.3726863E4,-7.6552314E3,3E0,4.5E5,-1.0786326E0,9.2886E4,-2.8950404E-2,-2.2255523E4,1.0574004E-1,2.8E1,-5.4746504E3,-1.8165941E4,1.2096132E0,1.3515E6,-1.6045831E-1,-5.069011E3,-3.2653562E4,1.09E0,2.084698E-2,-6.5795565E-1,2.9E1,2.116904E-2,1.4719256E4,2.2692198E-1,5.9918505E-3,3.579554E-2,1.1E1,1.4006022E0,2.452355E4,1.0465838E4,6.683304E4,-1.4302209E4,-7.536661E3,-3.815483E4,-2.0398225E4,-1.5619374E4,-2.7591969E4,-8.816117E3,-4.2039775E3,-5.025247E3,-1.2935878E4,-5.6397812E3,-1.075191E4,-3.4875647E3,4.9215815E3,3.5478616E3,1.4541677E4,4.9726504E3,2.9412719E4,-4.1562505E3,-1.2106198E4,-4.2111753E3,1.2413063E3,2.4820801E2,7.032345E3,1.4430531E4,-2.5944814E3,8.673015E3,1.8791688E3,8.989839E3,4.7596143E3,9.000964E3,1.9922773E4,1.0105629E4,2.0982484E4,1.0009075E4,3.1019467E4,1.548446E4,3.7563564E3],"split_indices":[28,8,8,8,27,8,8,12,8,27,28,8,28,28,9,4,1,27,28,10,27,28,8,4,28,9,8,8,8,0,25,0,0,0,6,27,8,1,28,0,10,19,0,0,8,27,10,0,0,16,28,8,21,25,0,9,28,28,19,9,0,0,0,0,0,0,0,0,0,0,0,0,0,0,0,0,0,0,0,0,0,0,0,0,0,0,0,0,0,0,0,0,0,0,0,0,0,0,0,0,0],"split_type":[0,0,0,0,0,0,0,0,0,0,0,0,0,0,0,0,0,0,0,0,0,0,0,0,0,0,0,0,0,0,0,0,0,0,0,0,0,0,0,0,0,0,0,0,0,0,0,0,0,0,0,0,0,0,0,0,0,0,0,0,0,0,0,0,0,0,0,0,0,0,0,0,0,0,0,0,0,0,0,0,0,0,0,0,0,0,0,0,0,0,0,0,0,0,0,0,0,0,0,0,0],"sum_hessian":[1.501E3,1.007E3,4.94E2,4.38E2,5.69E2,1.64E2,3.3E2,9E0,4.29E2,8.3E1,4.86E2,3.7E1,1.27E2,3.1E2,2E1,3E0,6E0,1.19E2,3.1E2,2.9E1,5.4E1,1.2E2,3.66E2,4E0,3.3E1,1.05E2,2.2E1,2.64E2,4.6E1,4E0,1.6E1,1E0,2E0,1E0,5E0,6.3E1,5.6E1,2.2E1,2.88E2,1.4E1,1.5E1,2.7E1,2.7E1,8E0,1.12E2,3.58E2,8E0,1E0,3E0,1.5E1,1.8E1,4E1,6.5E1,1.2E1,1E1,1.65E2,9.9E1,3.2E1,1.4E1,1.1E1,5E0,1E0,4E0,1.3E1,5E1,6E0,5E1,1.7E1,5E0,1E2,1.88E2,2E0,1.3E1,7E0,2E1,9.3E1,1.9E1,3.24E2,3.4E1,1E0,7E0,2E0,1.3E1,1.4E1,4E0,2.4E1,1.6E1,2E0,6.3E1,7E0,5E0,6.8E1,9.7E1,7.7E1,2.2E1,2.5E1,7E0,2E0,1.2E1,1E1,1E0],"tree_param":{"num_deleted":"0","num_feature":"32","num_nodes":"101","size_leaf_vector":"1"}},{"base_weights":[4.8882816E2,-1.3866432E4,9.687571E3,-2.1583639E4,4.131527E3,-5.232894E3,1.8669867E4,-3.7771016E4,-1.5393815E4,-1.4367492E4,1.3502795E4,-9.641969E3,1.8190262E4,6.6262163E3,3.819659E4,-2.6846967E4,-4.8410727E4,-3.3520312E4,-1.0607107E4,-1.6653086E4,-1.1228218E4,1.0847008E4,4.1100586E4,3.784883E4,-1.2178864E4,-1.4248285E4,2.0286166E4,-1.1854273E4,1.9443004E4,3.527576E4,9.542229E4,-3.9571566E4,-2.105732E4,-7.862049E4,-4.3213145E4,-4.6674863E4,-2.7078111E4,-2.8962066E4,-9.330628E3,-1.295158E4,7.23285E3,6.6345386E3,1.9563814E4,7.37435E3,1.5811133E4,4.74526E4,7.169726E3,-2.1623059E4,-5.137652E3,9.728411E3,2.780552E4,-4.518331E4,-4.256455E3,1.1810054E4,3.1213828E4,3.1641809E4,7.207816E4,3.2105744E4,9.806976E3,-1.239826E4,-1.7214282E3,-1.1529797E3,-6.6848804E3,-5.2888784E3,-2.5754217E4,-1.3823032E4,-5.711963E3,-7.966811E3,-1.7667766E4,-1.3500687E3,-8.41383E3,-1.6630923E3,-9.071651E3,-7.903072E2,-4.0691328E3,-6.133966E3,-2.316289E3,-8.118591E3,2.2366797E3,2.8983643E3,9.63696E3,-3.228926E3,8.965557E3,1.5380857E4,-7.191128E3,-3.7580005E3,1.8079924E2,5.611337E3,5.9427594E2,3.2929578E3,8.96765E3,-1.5086667E4,-3.7982964E3,-7.412864E2,-6.517354E3,1.1825519E4,3.1136772E3,3.04655E4,8.455796E3,2.8167115E4,8.842597E3,1.700154E4,3.354975E4],"categories":[],"categories_nodes":[],"categories_segments":[],"categories_sizes":[],"default_left":[0,0,0,0,0,0,0,0,0,0,0,0,0,0,0,0,0,0,0,0,0,0,0,0,0,0,0,0,0,0,0,0,0,0,0,0,0,0,0,0,0,0,0,0,0,0,0,0,0,0,0,0,0,0,0,0,0,0,0,0,0,0,0,0,0,0,0,0,0,0,0,0,0,0,0,0,0,0,0,0,0,0,0,0,0,0,0,0,0,0,0,0,0,0,0,0,0,0,0,0,0,0,0],"id":9,"left_children":[1,3,5,7,9,11,13,15,17,19,21,23,25,27,29,31,33,35,37,-1,39,41,43,45,47,-1,49,51,53,55,57,59,61,63,65,67,69,71,73,75,-1,77,79,-1,-1,-1,81,83,85,87,89,91,93,95,97,99,101,-1,-1,-1,-1,-1,-1,-1,-1,-1,-1,-1,-1,-1,-1,-1,-1,-1,-1,-1,-1,-1,-1,-1,-1,-1,-1,-1,-1,-1,-1,-1,-1,-1,-1,-1,-1,-1,-1,-1,-1,-1,-1,-1,-1,-1,-1],"loss_changes":[1.9847396E11,8.1619935E10,1.2286002E11,4.0599536E10,3.0878589E10,3.5805078E10,1.3426588E11,1.1834163E10,2.5587548E10,7.126228E9,8.2028544E9,3.5520393E10,8.535243E9,8.4315955E10,3.307189E10,3.4396447E9,5.3955543E9,3.990274E9,5.3060465E9,0E0,3.7835387E9,3.8726062E9,6.212608E8,5.423856E10,1.8309014E10,0E0,4.016423E9,3.6778967E10,1.8499052E10,2.5670582E10,3.7765366E9,7.728333E8,8.0046694E8,1.5719629E9,2.5838797E9,3.106349E9,8.354099E8,2.808658E8,6.3138386E9,1.9983165E9,0E0,2.2767782E9,4.042622E9,0E0,0E0,0E0,5.6172344E9,2.1419426E10,6.7939953E9,1.6319516E9,7.6049E8,3.8465126E9,3.6890263E9,4.6878147E9,1.4601363E10,2.312582E10,4.6867087E9,0E0,0E0,0E0,0E0,0E0,0E0,0E0,0E0,0E0,0E0,0E0,0E0,0E0,0E0,0E0,0E0,0E0,0E0,0E0,0E0,0E0,0E0,0E0,0E0,0E0,0E0,0E0,0E0,0E0,0E0,0E0,0E0,0E0,0E0,0E0,0E0,0E0,0E0,0E0,0E0,0E0,0E0,0E0,0E0,0E0,0E0],"parents":[2147483647,0,0,1,1,2,2,3,3,4,4,5,5,6,6,7,7,8,8,9,9,10,10,11,11,12,12,13,13,14,14,15,15,16,16,17,17,18,18,20,20,21,21,22,22,23,23,24,24,26,26,27,27,28,28,29,29,30,30,31,31,32,32,33,33,34,34,35,35,36,36,37,37,38,38,39,39,41,41,42,42,46,46,47,47,48,48,49,49,50,50,51,51,52,52,53,53,54,54,55,55,56,56],"right_children":[2,4,6,8,10,12,14,16,18,20,22,24,26,28,30,32,34,36,38,-1,40,42,44,46,48,-1,50,52,54,56,58,60,62,64,66,68,70,72,74,76,-1,78,80,-1,-1,-1,82,84,86,88,90,92,94,96,98,100,102,-1,-1,-1,-1,-1,-1,-1,-1,-1,-1,-1,-1,-1,-1,-1,-1,-1,-1,-1,-1,-1,-1,-1,-1,-1,-1,-1,-1,-1,-1,-1,-1,-1,-1,-1,-1,-1,-1,-1,-1,-1,-1,-1,-1,-1,-1],"split_conditions":[-2.2130124E-2,2.7108878E-1,-4.0910447E-1,-5.631552E-1,-3.6891825E-2,2.3649834E-2,9.3001E4,6.85E5,-4.8850674E-2,-6.249123E-2,1.5177147E0,2.6E1,-1.2220184E0,1.145E6,9.1928685E-1,-3.9227538E-2,-1.0786326E0,8.5263245E-2,5.74E5,-1.6653086E4,1.6030351E0,-2.5306694E-2,-2.979126E-2,-1.2220184E0,-7.33796E-1,-1.4248285E4,-6.508456E-1,8.4E5,1.4E6,2.271555E-2,9.3273336E-1,2.900312E-1,1.09E0,9.3111E4,3.173336E-1,9.2808E4,9.1321E4,-2.628423E-1,8.05E5,-4.3338392E-2,7.23285E3,1.5E0,8.150064E-1,7.37435E3,1.5811133E4,4.74526E4,-4.5471528E-4,5.394718E-3,-1.06384205E-2,2.378936E-2,2.514469E-2,9.2337E4,1.1822304E-1,6E0,-2.0261554E-2,-2.491911E-1,-2.3490864E-1,3.2105744E4,9.806976E3,-1.239826E4,-1.7214282E3,-1.1529797E3,-6.6848804E3,-5.2888784E3,-2.5754217E4,-1.3823032E4,-5.711963E3,-7.966811E3,-1.7667766E4,-1.3500687E3,-8.41383E3,-1.6630923E3,-9.071651E3,-7.903072E2,-4.0691328E3,-6.133966E3,-2.316289E3,-8.118591E3,2.2366797E3,2.8983643E3,9.63696E3,-3.228926E3,8.965557E3,1.5380857E4,-7.191128E3,-3.7580005E3,1.8079924E2,5.611337E3,5.9427594E2,3.2929578E3,8.96765E3,-1.5086667E4,-3.7982964E3,-7.412864E2,-6.517354E3,1.1825519E4,3.1136772E3,3.04655E4,8.455796E3,2.8167115E4,8.842597E3,1.700154E4,3.354975E4],"split_indices":[28,8,8,8,28,28,1,27,28,28,8,17,8,27,8,28,8,10,27,0,8,28,28,8,8,0,8,27,27,28,9,10,16,1,10,1,1,10,27,28,0,7,8,0,0,0,28,25,28,25,28,1,8,12,28,10,8,0,0,0,0,0,0,0,0,0,0,0,0,0,0,0,0,0,0,0,0,0,0,0,0,0,0,0,0,0,0,0,0,0,0,0,0,0,0,0,0,0,0,0,0,0,0],"split_type":[0,0,0,0,0,0,0,0,0,0,0,0,0,0,0,0,0,0,0,0,0,0,0,0,0,0,0,0,0,0,0,0,0,0,0,0,0,0,0,0,0,0,0,0,0,0,0,0,0,0,0,0,0,0,0,0,0,0,0,0,0,0,0,0,0,0,0,0,0,0,0,0,0,0,0,0,0,0,0,0,0,0,0,0,0,0,0,0,0,0,0,0,0,0,0,0,0,0,0,0,0,0,0],"sum_hessian":[1.501E3,5.86E2,9.15E2,4.1E2,1.76E2,3.44E2,5.71E2,1.12E2,2.98E2,5.9E1,1.17E2,2.9E2,5.4E1,3.54E2,2.17E2,5.7E1,5.5E1,6.1E1,2.37E2,3E0,5.6E1,1.08E2,9E0,1.4E1,2.76E2,1E0,5.3E1,1.45E2,2.09E2,2.08E2,9E0,1.6E1,4.1E1,6E0,4.9E1,1.8E1,4.3E1,1.4E1,2.23E2,5.4E1,2E0,7.4E1,3.4E1,5E0,4E0,2E0,1.2E1,1.17E2,1.59E2,2.3E1,3E1,2.6E1,1.19E2,1.28E2,8.1E1,1.91E2,1.7E1,7E0,2E0,1.5E1,1E0,3E0,3.8E1,1E0,5E0,4.3E1,6E0,8E0,1E1,2E0,4.1E1,1E0,1.3E1,8.7E1,1.36E2,2.1E1,3.3E1,1E0,7.3E1,2E1,1.4E1,7E0,5E0,3E0,1.14E2,6.9E1,9E1,1E1,1.3E1,4E0,2.6E1,2.2E1,4E0,1.09E2,1E1,5E0,1.23E2,2E0,7.9E1,5E0,1.86E2,1.4E1,3E0],"tree_param":{"num_deleted":"0","num_feature":"32","num_nodes":"103","size_leaf_vector":"1"}},{"base_weights":[4.1385678E2,-5.401591E3,1.2255387E4,-1.6401107E4,1.1683761E3,5.825363E2,1.9905207E4,5.8445258E4,-1.8390408E4,-2.0077443E4,4.9177896E3,-7.057897E4,2.4230803E3,1.6697793E4,4.0255773E4,-4.732836E4,1.10538E5,-9.25689E4,-1.732095E4,-4.8390215E4,-1.5401016E4,2.306823E3,2.1258082E4,-3.2299924E3,-2.485212E4,-1.9161016E3,1.4871463E4,1.3802643E4,4.899008E4,3.0807514E4,2.6598402E4,7.1334097E3,-2.3686951E4,-5.4282754E3,1.3499242E5,-1.16945625E4,-3.458989E4,-1.071603E4,-2.3724043E4,-7.1736343E3,-1.6983742E4,-1.7366383E4,-1.1142525E4,5.684172E4,1.5904834E3,2.6741762E4,1.6105745E4,-1.0133234E4,2.0443202E3,7.068453E3,2.1256676E4,-1.8519286E3,1.5234204E4,2.4814877E4,3.6188844E4,2.3775463E4,2.0473418E4,5.3669254E4,2.049465E4,-4.841654E3,2.1188242E3,-1.12191E4,-4.6159434E3,-5.5548574E3,-1.4670758E3,-3.6420212E3,-1.17789E3,4.658036E3,3.9512457E4,2.8167007E2,1.5221138E4,3.5253652E3,8.409794E3,-1.8722076E3,-1.0707647E4,6.946341E3,-1.05172966E2,-7.462547E2,3.3448765E3,7.1957134E3,2.3122314E3,1.9204618E3,-7.065757E3,-3.0133667E3,4.87065E3,7.2360005E3,1.3271013E4,5.339786E3,1.0921859E4],"categories":[],"categories_nodes":[],"categories_segments":[],"categories_sizes":[],"default_left":[0,0,0,0,0,0,0,0,0,0,0,0,0,0,0,0,0,0,0,0,0,0,0,0,0,0,0,0,0,0,0,0,0,0,0,0,0,0,0,0,0,0,0,0,0,0,0,0,0,0,0,0,0,0,0,0,0,0,0,0,0,0,0,0,0,0,0,0,0,0,0,0,0,0,0,0,0,0,0,0,0,0,0,0,0,0,0,0,0],"id":10,"left_children":[1,3,5,7,9,11,13,15,17,19,21,23,25,27,29,31,33,35,37,39,41,43,45,-1,-1,47,49,51,53,55,-1,-1,-1,-1,57,-1,-1,59,61,-1,-1,63,65,67,69,-1,71,73,75,77,79,81,83,-1,85,87,-1,-1,-1,-1,-1,-1,-1,-1,-1,-1,-1,-1,-1,-1,-1,-1,-1,-1,-1,-1,-1,-1,-1,-1,-1,-1,-1,-1,-1,-1,-1,-1,-1],"loss_changes":[1.0349963E11,7.286376E10,4.4189532E10,5.720707E10,5.0443457E10,2.5973266E10,1.884436E10,6.0331962E10,2.7590361E10,1.1832992E10,2.2904173E10,2.7750113E9,1.0453544E10,2.3631462E10,1.5562506E10,1.0873282E10,2.4461967E10,1.5957647E9,1.5140028E10,1.2627231E9,5.01162E8,1.8075054E10,2.4445587E10,0E0,0E0,4.706952E9,2.3409418E9,5.406728E9,6.0730573E9,7.5915653E9,0E0,0E0,0E0,0E0,5.343265E9,0E0,0E0,1.7564383E10,2.0400431E10,0E0,0E0,6.9843456E8,1.6109082E8,1.6513612E10,1.4683001E10,0E0,3.3061028E9,4.453248E9,4.9626665E9,9.637156E8,8.1349325E8,3.91198E9,5.7316106E9,0E0,5.8419405E8,1.6919818E9,0E0,0E0,0E0,0E0,0E0,0E0,0E0,0E0,0E0,0E0,0E0,0E0,0E0,0E0,0E0,0E0,0E0,0E0,0E0,0E0,0E0,0E0,0E0,0E0,0E0,0E0,0E0,0E0,0E0,0E0,0E0,0E0,0E0],"parents":[2147483647,0,0,1,1,2,2,3,3,4,4,5,5,6,6,7,7,8,8,9,9,10,10,11,11,12,12,13,13,14,14,15,15,16,16,17,17,18,18,19,19,20,20,21,21,22,22,25,25,26,26,27,27,28,28,29,29,34,34,37,37,38,38,41,41,42,42,43,43,44,44,46,46,47,47,48,48,49,49,50,50,51,51,52,52,54,54,55,55],"right_children":[2,4,6,8,10,12,14,16,18,20,22,24,26,28,30,32,34,36,38,40,42,44,46,-1,-1,48,50,52,54,56,-1,-1,-1,-1,58,-1,-1,60,62,-1,-1,64,66,68,70,-1,72,74,76,78,80,82,84,-1,86,88,-1,-1,-1,-1,-1,-1,-1,-1,-1,-1,-1,-1,-1,-1,-1,-1,-1,-1,-1,-1,-1,-1,-1,-1,-1,-1,-1,-1,-1,-1,-1,-1,-1],"split_conditions":[-9.610707E-3,-3.1904402E-1,-4.399146E-1,-1.2220184E0,6.99E5,-1.2220184E0,1.7483555E-2,5E0,-1.155658E0,2.4E5,1.25E6,6E1,2.514469E-2,5.744502E-1,-5.478778E-2,3.5E1,9.0046E4,3.5E1,8.05E5,8.6E1,6.05E5,-2.628423E-1,-1.638083E-1,-3.2299924E3,-2.485212E4,1.5E0,-6.508456E-1,5E0,-1.5401615E0,3.822468E-2,2.6598402E4,7.1334097E3,-2.3686951E4,-5.4282754E3,2.058799E-1,-1.16945625E4,-3.458989E4,6.99E5,-6.2714547E-1,-7.1736343E3,-1.6983742E4,2.900312E-1,-3.28744E-2,3.5E0,1.6030351E0,2.6741762E4,1.45E6,9.501E4,-1.3315591E-1,7.2E1,5.7960846E-2,6.478644E-2,2.2E1,2.4814877E4,7.166509E-1,-2.0765351E-1,2.0473418E4,5.3669254E4,2.049465E4,-4.841654E3,2.1188242E3,-1.12191E4,-4.6159434E3,-5.5548574E3,-1.4670758E3,-3.6420212E3,-1.17789E3,4.658036E3,3.9512457E4,2.8167007E2,1.5221138E4,3.5253652E3,8.409794E3,-1.8722076E3,-1.0707647E4,6.946341E3,-1.05172966E2,-7.462547E2,3.3448765E3,7.1957134E3,2.3122314E3,1.9204618E3,-7.065757E3,-3.0133667E3,4.87065E3,7.2360005E3,1.3271013E4,5.339786E3,1.0921859E4],"split_indices":[28,8,8,8,27,8,28,12,8,27,27,4,28,8,8,4,1,4,27,19,27,10,8,0,0,7,8,4,9,28,0,0,0,0,9,0,0,27,8,0,0,10,28,7,8,0,27,1,10,17,10,10,17,0,8,8,0,0,0,0,0,0,0,0,0,0,0,0,0,0,0,0,0,0,0,0,0,0,0,0,0,0,0,0,0,0,0,0,0],"split_type":[0,0,0,0,0,0,0,0,0,0,0,0,0,0,0,0,0,0,0,0,0,0,0,0,0,0,0,0,0,0,0,0,0,0,0,0,0,0,0,0,0,0,0,0,0,0,0,0,0,0,0,0,0,0,0,0,0,0,0,0,0,0,0,0,0,0,0,0,0,0,0,0,0,0,0,0,0,0,0,0,0,0,0,0,0,0,0,0,0],"sum_hessian":[1.501E3,1.007E3,4.94E2,3.76E2,6.31E2,1.96E2,2.98E2,9E0,3.67E2,9.4E1,5.37E2,4E0,1.92E2,2.59E2,3.9E1,3E0,6E0,4E0,3.63E2,1.2E1,8.2E1,4.64E2,7.3E1,1E0,3E0,1.43E2,4.9E1,2.39E2,2E1,3.4E1,5E0,1E0,2E0,1E0,5E0,2E0,2E0,1.8E2,1.83E2,4E0,8E0,5.4E1,2.8E1,5E0,4.59E2,4E0,6.9E1,4.6E1,9.7E1,2.3E1,2.6E1,2E1,2.19E2,4E0,1.6E1,3E1,4E0,2E0,3E0,1.38E2,4.2E1,6.8E1,1.15E2,4.9E1,5E0,2.4E1,4E0,4E0,1E0,4.54E2,5E0,5.2E1,1.7E1,4.1E1,5E0,9E0,8.8E1,7E0,1.6E1,2.1E1,5E0,1.5E1,5E0,8E0,2.11E2,8E0,8E0,2.2E1,8E0],"tree_param":{"num_deleted":"0","num_feature":"32","num_nodes":"89","size_leaf_vector":"1"}},{"base_weights":[3.7848178E2,-1.449582E4,3.2186785E3,-2.2853285E4,-1.0041949E4,-5.406055E3,7.7142095E3,-1.6317806E4,-4.4008703E4,-1.19844795E4,8.493925E2,-1.074567E4,1.1661194E3,1.9343606E3,1.6826723E4,-1.0072619E4,-1.1776929E4,-4.7438746E4,-9.902219E3,-4.187211E3,-1.4777555E4,-1.0732138E4,3.5664524E3,4.6129887E4,-1.31718E4,-3.5003008E4,3.518638E3,-5.9706406E3,9.293058E3,-6.704764E2,2.1959115E4,-9.182639E3,-1.8347979E4,-5.1452074E4,-3.4677563E3,-9.2317505E2,-3.5328235E3,-9.706661E3,2.877239E3,-2.1287623E4,-1.1638574E4,3.1017095E3,-5.5754062E3,1.0594875E4,-1.5737212E3,8.053091E4,-6.0982793E4,-4.376625E3,-2.3066566E4,-1.3372469E4,-5.44048E4,5.829704E2,1.0575189E4,-1.1877678E4,-4.820249E3,6.30458E3,2.260986E4,1.1213479E4,-6.962565E3,1.9997615E4,5.903227E4,-4.2169243E3,-1.366823E3,5.0789532E2,-6.0059463E3,-1.6440076E4,-5.9377847E3,-4.167678E3,-1.1139825E3,3.4396863E3,-4.9701642E2,-8.236827E3,-3.1903984E3,-5.232322E3,-2.4468987E3,4.9323066E3,-2.4691876E2,-2.2574368E3,1.986997E3,3.68385E3,3.5707758E4,-4.6140376E3,-2.2828219E4,-2.1979714E3,2.4291533E3,-2.4639717E4,-6.179028E3,-6.554262E3,-4.662844E2,-2.1617562E4,-8.268989E3,8.4880707E2,-4.7219297E3,4.217182E3,6.508919E2,8.463301E2,-2.0266075E3,7.347888E2,3.7865474E3,8.293552E3,2.9067502E3,8.634619E3,2.301159E3,-3.1650665E2,-5.7242803E3,1.2604094E4,5.1648984E3,1.0794713E4,2.2825531E4],"categories":[],"categories_nodes":[],"categories_segments":[],"categories_sizes":[],"default_left":[0,0,0,0,0,0,0,0,0,0,0,0,0,0,0,0,0,0,0,0,0,0,0,0,0,0,0,0,0,0,0,0,0,0,0,0,0,0,0,0,0,0,0,0,0,0,0,0,0,0,0,0,0,0,0,0,0,0,0,0,0,0,0,0,0,0,0,0,0,0,0,0,0,0,0,0,0,0,0,0,0,0,0,0,0,0,0,0,0,0,0,0,0,0,0,0,0,0,0,0,0,0,0,0,0,0,0,0,0],"id":11,"left_children":[1,3,5,7,9,11,13,15,17,19,21,23,25,27,29,-1,31,33,35,37,39,41,43,45,47,49,51,53,55,57,59,61,63,65,-1,-1,-1,67,69,71,73,-1,-1,75,77,79,81,83,85,87,89,91,93,-1,95,97,99,101,103,105,107,-1,-1,-1,-1,-1,-1,-1,-1,-1,-1,-1,-1,-1,-1,-1,-1,-1,-1,-1,-1,-1,-1,-1,-1,-1,-1,-1,-1,-1,-1,-1,-1,-1,-1,-1,-1,-1,-1,-1,-1,-1,-1,-1,-1,-1,-1,-1,-1],"loss_changes":[6.3500063E10,8.74127E9,4.8972927E10,1.0757517E10,3.3741036E9,1.5207747E10,4.3682673E10,4.698284E9,1.753002E9,2.8782019E9,8.2496845E8,3.3586629E10,1.6715428E10,2.9664274E10,2.8931138E10,0E0,7.35019E8,1.8531942E9,2.129152E6,1.4706278E9,1.7753068E9,1.0194597E9,7.753469E8,4.175885E10,1.9915071E10,4.308529E9,3.8055222E9,9.323949E9,1.0363851E10,5.611417E9,1.6926523E10,8.379105E8,5.0296832E8,5.0537677E8,0E0,0E0,0E0,4.7521843E8,6.8096474E8,1.7450998E9,1.2519393E9,0E0,0E0,6.1429037E8,6.839943E8,1.9557093E10,8.970066E8,4.5853614E9,1.406351E10,6.671626E8,8.569467E8,4.847933E9,1.550017E9,0E0,3.5531136E9,5.2540713E9,2.8550062E9,1.3975854E9,3.4877686E9,1.3850108E10,1.9790684E9,0E0,0E0,0E0,0E0,0E0,0E0,0E0,0E0,0E0,0E0,0E0,0E0,0E0,0E0,0E0,0E0,0E0,0E0,0E0,0E0,0E0,0E0,0E0,0E0,0E0,0E0,0E0,0E0,0E0,0E0,0E0,0E0,0E0,0E0,0E0,0E0,0E0,0E0,0E0,0E0,0E0,0E0,0E0,0E0,0E0,0E0,0E0,0E0],"parents":[2147483647,0,0,1,1,2,2,3,3,4,4,5,5,6,6,7,7,8,8,9,9,10,10,11,11,12,12,13,13,14,14,16,16,17,17,18,18,19,19,20,20,21,21,22,22,23,23,24,24,25,25,26,26,27,27,28,28,29,29,30,30,31,31,32,32,33,33,37,37,38,38,39,39,40,40,43,43,44,44,45,45,46,46,47,47,48,48,49,49,50,50,51,51,52,52,54,54,55,55,56,56,57,57,58,58,59,59,60,60],"right_children":[2,4,6,8,10,12,14,16,18,20,22,24,26,28,30,-1,32,34,36,38,40,42,44,46,48,50,52,54,56,58,60,62,64,66,-1,-1,-1,68,70,72,74,-1,-1,76,78,80,82,84,86,88,90,92,94,-1,96,98,100,102,104,106,108,-1,-1,-1,-1,-1,-1,-1,-1,-1,-1,-1,-1,-1,-1,-1,-1,-1,-1,-1,-1,-1,-1,-1,-1,-1,-1,-1,-1,-1,-1,-1,-1,-1,-1,-1,-1,-1,-1,-1,-1,-1,-1,-1,-1,-1,-1,-1,-1],"split_conditions":[-3.5116684E-2,-4.950467E-2,-4.162145E-1,9.3035E4,7.3561096E-1,-7.6487088E-3,9.3001E4,2.3E5,-5.09061E-2,5E0,-4.4272676E-2,-1.2220184E0,-1.0786326E0,1.1175E6,-2.558698E-2,-1.0072619E4,5E0,3.5E0,9.3906E4,-4.9679488E-1,5.398811E-1,9.2337E4,1.4275368E-1,1.0181655E-2,8.05E5,9.3033E4,2.3649834E-2,2.46E5,1.5E6,3.7E1,1.0946677E0,2.75E5,1.9E1,2.832056E-1,-3.4677563E3,-9.2317505E2,-3.5328235E3,6E1,-4.586096E-2,1.1256564E-1,-1.9224843E-1,3.1017095E3,-5.5754062E3,-3.7078682E-2,1.1714774E0,3E0,9.0046E4,7.3E5,-1.155658E0,1.6829278E-2,-1.4824286E-3,1.058E6,3.1790406E-2,-1.1877678E4,8.05E5,2.971589E-1,3.3E1,-3.3434972E-2,1.09E2,9.303E4,-2.0261554E-2,-4.2169243E3,-1.366823E3,5.0789532E2,-6.0059463E3,-1.6440076E4,-5.9377847E3,-4.167678E3,-1.1139825E3,3.4396863E3,-4.9701642E2,-8.236827E3,-3.1903984E3,-5.232322E3,-2.4468987E3,4.9323066E3,-2.4691876E2,-2.2574368E3,1.986997E3,3.68385E3,3.5707758E4,-4.6140376E3,-2.2828219E4,-2.1979714E3,2.4291533E3,-2.4639717E4,-6.179028E3,-6.554262E3,-4.662844E2,-2.1617562E4,-8.268989E3,8.4880707E2,-4.7219297E3,4.217182E3,6.508919E2,8.463301E2,-2.0266075E3,7.347888E2,3.7865474E3,8.293552E3,2.9067502E3,8.634619E3,2.301159E3,-3.1650665E2,-5.7242803E3,1.2604094E4,5.1648984E3,1.0794713E4,2.2825531E4],"split_indices":[28,28,8,1,8,28,1,27,28,12,28,8,8,27,28,0,12,7,1,8,9,1,9,10,27,1,28,27,27,4,8,27,20,10,0,0,0,4,28,10,8,0,0,28,9,6,1,27,8,25,28,27,25,0,27,8,24,28,19,1,28,0,0,0,0,0,0,0,0,0,0,0,0,0,0,0,0,0,0,0,0,0,0,0,0,0,0,0,0,0,0,0,0,0,0,0,0,0,0,0,0,0,0,0,0,0,0,0,0],"split_type":[0,0,0,0,0,0,0,0,0,0,0,0,0,0,0,0,0,0,0,0,0,0,0,0,0,0,0,0,0,0,0,0,0,0,0,0,0,0,0,0,0,0,0,0,0,0,0,0,0,0,0,0,0,0,0,0,0,0,0,0,0,0,0,0,0,0,0,0,0,0,0,0,0,0,0,0,0,0,0,0,0,0,0,0,0,0,0,0,0,0,0,0,0,0,0,0,0,0,0,0,0,0,0,0,0,0,0,0,0],"sum_hessian":[1.501E3,2.4E2,1.261E3,8.2E1,1.58E2,4.32E2,8.29E2,6.4E1,1.8E1,1.34E2,2.4E1,2.38E2,1.94E2,5.08E2,3.21E2,1.2E1,5.2E1,1.6E1,2E0,3.6E1,9.8E1,4E0,2E1,9E0,2.29E2,1.1E1,1.83E2,2.45E2,2.63E2,7.3E1,2.48E2,3.9E1,1.3E1,1.4E1,2E0,1E0,1E0,2E1,1.6E1,3E1,6.8E1,1E0,3E0,8E0,1.2E1,7E0,2E0,1.22E2,1.07E2,6E0,5E0,1.3E2,5.3E1,7E0,2.38E2,2.16E2,4.7E1,2.5E1,4.8E1,2.37E2,1.1E1,1.8E1,2.1E1,1E0,1.2E1,1.2E1,2E0,1.1E1,9E0,5E0,1.1E1,1.8E1,1.2E1,2.4E1,4.4E1,5E0,3E0,7E0,5E0,3E0,4E0,1E0,1E0,9.9E1,2.3E1,3E0,1.04E2,3E0,3E0,2E0,3E0,1.15E2,1.5E1,3.7E1,1.6E1,4.8E1,1.9E2,1.35E2,8.1E1,3.3E1,1.4E1,3E0,2.2E1,3.3E1,1.5E1,2.5E1,2.12E2,6E0,5E0],"tree_param":{"num_deleted":"0","num_feature":"32","num_nodes":"109","size_leaf_vector":"1"}},{"base_weights":[2.2063406E2,-5.593895E3,3.9988784E3,-8.613029E3,1.4765239E3,2.1003198E3,1.6377069E4,-1.6665432E4,-6.902605E3,-7.740947E3,6.1115806E3,-1.2870254E3,8.867055E3,1.4105489E4,5.756477E4,-1.1601339E4,-3.2366826E4,-3.1802826E4,-6.2910195E3,-3.3527227E4,-5.795577E3,4.580468E3,2.2342662E4,-3.4581238E2,-8.3114914E4,5.882499E3,2.9580682E4,1.1335257E4,4.5781E4,7.122381E4,6.049338E3,-2.8292803E4,-8.229995E3,-3.434413E4,-3.5074094E3,-1.3286237E4,-1.747052E4,-2.832585E3,-8.342821E3,-1.1523775E4,-2.8306736E3,-3.8540203E3,-1.9113268E4,3.346957E3,1.988936E4,9.091792E3,2.4518906E4,-8.7713635E2,4.5582793E4,-3.2269975E4,-6.842319E3,-1.259446E4,9.566617E3,6.0502902E4,1.3505677E4,7.671625E2,1.3582747E4,5.6145835E3,5.6455035E4,6.381619E3,2.4235113E4,-2.2688157E3,-8.981617E3,-2.8755083E3,3.2277325E2,-1.0728814E4,-2.172586E3,-6.0550664E3,1.0167969E2,4.384769E3,-1.2385244E3,9.0547034E2,-2.8061807E3,-6.336593E3,-5.8050104E2,-1.0212088E4,-1.9003201E3,1.0177988E4,8.1436273E2,2.5001251E2,6.7477773E3,3.6292126E3,4.6209378E2,7.8591E3,1.9158375E3,-5.521727E3,8.293279E1,-1.9243595E3,2.9915488E4,-1.1271925E4,-1.1545312E3,3.6292554E3,-6.432588E3,6.586909E3,2.3817863E4,-1.0239387E4,7.5992686E3,-1.0170486E3,5.4732E3,1.0403463E4,3.574269E3,-4.321875E1,2.5697812E3,7.370388E3,1.9288883E4],"categories":[],"categories_nodes":[],"categories_segments":[],"categories_sizes":[],"default_left":[0,0,0,0,0,0,0,0,0,0,0,0,0,0,0,0,0,0,0,0,0,0,0,0,0,0,0,0,0,0,0,0,0,0,0,0,0,0,0,0,0,0,0,0,0,0,0,0,0,0,0,0,0,0,0,0,0,0,0,0,0,0,0,0,0,0,0,0,0,0,0,0,0,0,0,0,0,0,0,0,0,0,0,0,0,0,0,0,0,0,0,0,0,0,0,0,0,0,0,0,0,0,0,0,0],"id":12,"left_children":[1,3,5,7,9,11,13,15,17,19,21,23,25,27,29,31,33,35,37,39,41,43,45,47,49,51,53,55,57,59,-1,61,63,65,-1,67,-1,69,71,-1,-1,73,75,77,79,81,83,85,87,-1,-1,89,91,93,95,97,99,101,103,-1,-1,-1,-1,-1,-1,-1,-1,-1,-1,-1,-1,-1,-1,-1,-1,-1,-1,-1,-1,-1,-1,-1,-1,-1,-1,-1,-1,-1,-1,-1,-1,-1,-1,-1,-1,-1,-1,-1,-1,-1,-1,-1,-1,-1,-1],"loss_changes":[3.3019376E10,1.2649871E10,2.137476E10,5.600768E9,7.6520924E9,1.8142132E10,1.0508923E10,5.349456E9,5.0385736E9,2.815521E9,2.8550026E9,4.0636477E10,1.6146725E10,9.65989E9,1.6289239E9,2.9184195E9,2.93462E8,3.1417539E9,2.3677276E9,1.0834022E8,1.4001893E9,2.0106358E9,6.5450496E7,1.2802734E10,6.394319E9,1.5913029E10,1.5586335E10,2.5547612E9,3.5416678E9,1.916969E8,0E0,8.066253E7,6.15583E8,3.1771034E8,0E0,5.7070355E8,0E0,2.9318436E9,2.452058E9,0E0,0E0,1.6491415E9,1.1196283E9,1.8998249E9,3.78112E8,4.945605E7,7.613082E7,1.0479384E10,1.7529055E10,0E0,0E0,8.375482E9,1.5484439E10,6.2663967E9,1.3820878E10,1.5149876E9,2.7194726E9,5.222145E7,1.7061069E8,0E0,0E0,0E0,0E0,0E0,0E0,0E0,0E0,0E0,0E0,0E0,0E0,0E0,0E0,0E0,0E0,0E0,0E0,0E0,0E0,0E0,0E0,0E0,0E0,0E0,0E0,0E0,0E0,0E0,0E0,0E0,0E0,0E0,0E0,0E0,0E0,0E0,0E0,0E0,0E0,0E0,0E0,0E0,0E0,0E0,0E0],"parents":[2147483647,0,0,1,1,2,2,3,3,4,4,5,5,6,6,7,7,8,8,9,9,10,10,11,11,12,12,13,13,14,14,15,15,16,16,17,17,18,18,19,19,20,20,21,21,22,22,23,23,24,24,25,25,26,26,27,27,28,28,29,29,31,31,32,32,33,33,35,35,37,37,38,38,41,41,42,42,43,43,44,44,45,45,46,46,47,47,48,48,51,51,52,52,53,53,54,54,55,55,56,56,57,57,58,58],"right_children":[2,4,6,8,10,12,14,16,18,20,22,24,26,28,30,32,34,36,38,40,42,44,46,48,50,52,54,56,58,60,-1,62,64,66,-1,68,-1,70,72,-1,-1,74,76,78,80,82,84,86,88,-1,-1,90,92,94,96,98,100,102,104,-1,-1,-1,-1,-1,-1,-1,-1,-1,-1,-1,-1,-1,-1,-1,-1,-1,-1,-1,-1,-1,-1,-1,-1,-1,-1,-1,-1,-1,-1,-1,-1,-1,-1,-1,-1,-1,-1,-1,-1,-1,-1,-1,-1,-1,-1],"split_conditions":[-2.2036696E-2,2.7108878E-1,2.971589E-1,-4.950467E-2,-3.6891825E-2,9.3101E4,1.162213E0,3.85E5,-1.0786326E0,-6.249123E-2,1.5177147E0,9.306E4,1.67E2,7.3932777E-3,5.9E1,2.199E5,3.2659948E-2,-2.7735835E-2,2.0494882E-2,9.3906E4,9.5037E4,3.7193838E-1,-3.1379543E-2,3.5E0,-2.423655E-1,1.5E0,2.1519162E-2,1.61E2,3.5166916E-1,3.3E1,6.049338E3,1E0,3.26E5,2.5E0,-3.5074094E3,-1.1011478E0,-1.747052E4,7E0,9.1355E4,-1.1523775E4,-2.8306736E3,5.7E1,4.1802946E-1,1.6E1,4E0,9.3013E4,4.7207613E-2,5.9E5,9.1761E4,-3.2269975E4,-6.842319E3,-1.2320133E-2,1.8813838E-1,5E1,-5.9633535E-1,1.45E6,2.98E2,9.5062E4,2.5E0,6.381619E3,2.4235113E4,-2.2688157E3,-8.981617E3,-2.8755083E3,3.2277325E2,-1.0728814E4,-2.172586E3,-6.0550664E3,1.0167969E2,4.384769E3,-1.2385244E3,9.0547034E2,-2.8061807E3,-6.336593E3,-5.8050104E2,-1.0212088E4,-1.9003201E3,1.0177988E4,8.1436273E2,2.5001251E2,6.7477773E3,3.6292126E3,4.6209378E2,7.8591E3,1.9158375E3,-5.521727E3,8.293279E1,-1.9243595E3,2.9915488E4,-1.1271925E4,-1.1545312E3,3.6292554E3,-6.432588E3,6.586909E3,2.3817863E4,-1.0239387E4,7.5992686E3,-1.0170486E3,5.4732E3,1.0403463E4,3.574269E3,-4.321875E1,2.5697812E3,7.370388E3,1.9288883E4],"split_indices":[28,8,8,28,28,1,8,27,8,28,8,1,20,28,19,27,25,28,25,1,1,10,28,7,10,7,25,21,8,4,0,4,27,7,0,8,0,4,1,0,0,17,8,17,6,1,25,27,1,0,0,28,8,4,8,27,21,1,7,0,0,0,0,0,0,0,0,0,0,0,0,0,0,0,0,0,0,0,0,0,0,0,0,0,0,0,0,0,0,0,0,0,0,0,0,0,0,0,0,0,0,0,0,0,0],"split_type":[0,0,0,0,0,0,0,0,0,0,0,0,0,0,0,0,0,0,0,0,0,0,0,0,0,0,0,0,0,0,0,0,0,0,0,0,0,0,0,0,0,0,0,0,0,0,0,0,0,0,0,0,0,0,0,0,0,0,0,0,0,0,0,0,0,0,0,0,0,0,0,0,0,0,0,0,0,0,0,0,0,0,0,0,0,0,0,0,0,0,0,0,0,0,0,0,0,0,0,0,0,0,0,0,0],"sum_hessian":[1.501E3,5.91E2,9.1E2,4.14E2,1.77E2,7.9E2,1.2E2,7.1E1,3.43E2,5.9E1,1.18E2,5.27E2,2.63E2,1.15E2,5E0,5.5E1,1.6E1,7E0,3.36E2,3E0,5.6E1,1.09E2,9E0,5.22E2,5E0,2.31E2,3.2E1,1.07E2,8E0,3E0,2E0,8E0,4.7E1,1.4E1,2E0,5E0,2E0,1.26E2,2.1E2,2E0,1E0,5E1,6E0,1.02E2,7E0,2E0,7E0,5.17E2,5E0,3E0,2E0,3.8E1,1.93E2,1E1,2.2E1,1.9E1,8.8E1,2E0,6E0,1E0,2E0,1E0,7E0,4.1E1,6E0,1.3E1,1E0,3E0,2E0,8E0,1.18E2,1.7E1,1.93E2,4E0,4.6E1,2E0,4E0,1E0,1.01E2,1E0,6E0,1E0,1E0,6E0,1E0,3.1E1,4.86E2,3E0,2E0,9E0,2.9E1,1.79E2,1.4E1,4E0,6E0,4E0,1.8E1,1.6E1,3E0,5E0,8.3E1,1E0,1E0,2E0,4E0],"tree_param":{"num_deleted":"0","num_feature":"32","num_nodes":"105","size_leaf_vector":"1"}},{"base_weights":[1.719906E2,-8.0718447E3,1.6536753E3,-1.5905514E4,-6.329769E3,-3.8390212E3,4.302298E3,-1.0975169E4,-3.0092066E4,-7.3891914E3,2.0480823E3,1.938566E4,-4.758411E3,9.628214E2,9.43181E3,-1.5851716E4,-7.6659434E3,-3.4651586E4,-2.3707969E3,-2.2628629E4,-6.5860566E3,-7.2788623E3,4.525118E3,2.2678287E4,5.956263E3,-1.3387913E4,-2.245827E3,-3.3775676E3,5.2500396E3,8.430293E3,3.8528816E4,-1.1432157E3,-4.9799775E3,1.0682312E3,-9.783881E3,-1.1126525E4,-2.6390625E3,-3.213438E4,-5.0892812E3,-1.1643047E4,-4.269668E3,2.7235312E3,-4.091339E3,-6.1726875E3,9.11448E3,-9.566588E3,1.31220625E4,2.700184E3,-1.7171445E4,-5.6068247E3,2.294507E3,-2.0122404E4,-2.4861948E3,1.6399908E3,1.0027626E4,6.069108E3,2.1182064E4,8.670208E3,6.1965957E4,1.4408407E3,-9.0672504E2,-3.1069443E3,-9.334219E1,-2.1551016E3,-1.0972843E4,-4.259161E3,8.0372815E2,-1.7160106E3,-4.2054155E3,-5.49048E2,-2.534863E3,2.861875E2,-2.99235E3,9.120054E2,4.1660625E3,4.067672E3,-5.6213066E3,-1.1349751E3,4.626238E3,2.4553088E4,-2.0308932E3,-1.2875428E4,-3.721031E3,-4.4918495E1,-3.6181035E3,1.0320754E3,-6.759138E3,-9.273643E3,-4.1382812E3,1.4586238E3,-1.3099127E3,1.2945713E4,1.5208607E2,5.0253174E3,1.9601907E3,1.4240577E3,7.493403E3,1.8693389E4,4.607071E3,3.42153E3,-7.506375E2,2.1108E4,2.9993625E3],"categories":[],"categories_nodes":[],"categories_segments":[],"categories_sizes":[],"default_left":[0,0,0,0,0,0,0,0,0,0,0,0,0,0,0,0,0,0,0,0,0,0,0,0,0,0,0,0,0,0,0,0,0,0,0,0,0,0,0,0,0,0,0,0,0,0,0,0,0,0,0,0,0,0,0,0,0,0,0,0,0,0,0,0,0,0,0,0,0,0,0,0,0,0,0,0,0,0,0,0,0,0,0,0,0,0,0,0,0,0,0,0,0,0,0,0,0,0,0,0,0,0,0],"id":13,"left_children":[1,3,5,7,9,11,13,15,17,19,21,23,25,27,29,31,33,35,-1,37,39,41,43,-1,45,47,49,51,53,55,57,-1,-1,59,61,-1,-1,63,65,67,69,-1,-1,71,73,75,77,79,81,83,85,87,89,91,93,95,97,99,101,-1,-1,-1,-1,-1,-1,-1,-1,-1,-1,-1,-1,-1,-1,-1,-1,-1,-1,-1,-1,-1,-1,-1,-1,-1,-1,-1,-1,-1,-1,-1,-1,-1,-1,-1,-1,-1,-1,-1,-1,-1,-1,-1,-1],"loss_changes":[1.8359925E10,3.0244506E9,1.8550772E10,2.5374628E9,1.6926372E9,8.953547E9,1.4722619E10,3.948846E8,7.378913E8,1.9071724E9,5.4120755E8,1.1627311E10,8.642874E9,9.731209E9,9.554035E9,4.4852224E7,3.9891853E8,1.7776742E8,0E0,1.1702569E9,1.8362348E9,6.4388486E8,9.3999066E8,0E0,1.6828044E9,5.524651E9,4.758741E9,3.8307039E9,4.5196E9,9.7774E9,7.1605473E9,0E0,0E0,9.090014E7,8.898726E7,0E0,0E0,2.9137408E8,3.2105066E8,6.231757E8,1.1265821E9,0E0,0E0,1.7208029E8,3.3465024E8,1.3144937E9,4.4694797E8,1.4044597E10,8.4291645E9,6.3021235E9,3.8604378E9,4.6121523E8,3.447618E9,7.0804214E9,2.5448468E9,6.8570685E9,1.1261897E10,2.1186768E8,1.9138826E9,0E0,0E0,0E0,0E0,0E0,0E0,0E0,0E0,0E0,0E0,0E0,0E0,0E0,0E0,0E0,0E0,0E0,0E0,0E0,0E0,0E0,0E0,0E0,0E0,0E0,0E0,0E0,0E0,0E0,0E0,0E0,0E0,0E0,0E0,0E0,0E0,0E0,0E0,0E0,0E0,0E0,0E0,0E0,0E0],"parents":[2147483647,0,0,1,1,2,2,3,3,4,4,5,5,6,6,7,7,8,8,9,9,10,10,11,11,12,12,13,13,14,14,15,15,16,16,17,17,19,19,20,20,21,21,22,22,24,24,25,25,26,26,27,27,28,28,29,29,30,30,33,33,34,34,37,37,38,38,39,39,40,40,43,43,44,44,45,45,46,46,47,47,48,48,49,49,50,50,51,51,52,52,53,53,54,54,55,55,56,56,57,57,58,58],"right_children":[2,4,6,8,10,12,14,16,18,20,22,24,26,28,30,32,34,36,-1,38,40,42,44,-1,46,48,50,52,54,56,58,-1,-1,60,62,-1,-1,64,66,68,70,-1,-1,72,74,76,78,80,82,84,86,88,90,92,94,96,98,100,102,-1,-1,-1,-1,-1,-1,-1,-1,-1,-1,-1,-1,-1,-1,-1,-1,-1,-1,-1,-1,-1,-1,-1,-1,-1,-1,-1,-1,-1,-1,-1,-1,-1,-1,-1,-1,-1,-1,-1,-1,-1,-1,-1,-1],"split_conditions":[-3.61444E-2,-5.7913236E-2,-4.3754458E-1,9.3035E4,7.3561096E-1,2.6E1,9.2886E4,2.3E5,9.3907E4,-1.5399711E0,-4.4272676E-2,-1.2220184E0,-8.570366E-1,1.1175E6,2.9722687E-2,9.1405E4,3.4E1,3.5E0,-2.3707969E3,1.0232547E-2,1.0181655E-2,9.2337E4,9.2845E4,2.2678287E4,1.2E1,1.09E0,-6.0604247E-3,3.1E5,2.2965997E-2,1.0849711E0,9.3117E4,-1.1432157E3,-4.9799775E3,9.2805E4,5.279788E-2,-1.1126525E4,-2.6390625E3,9.1405E4,-5.6789523E-1,9.1765E4,-4.1936964E-2,2.7235312E3,-4.091339E3,1.0181655E-2,2.3981035E-2,2.3E1,-9.020668E-1,5.394718E-3,-1.155658E0,8.05E5,1.4353384E0,2.199E5,8.05E5,4E0,2.1E1,1.0946677E0,-1.0585353E-1,9.311E4,4E0,1.4408407E3,-9.0672504E2,-3.1069443E3,-9.334219E1,-2.1551016E3,-1.0972843E4,-4.259161E3,8.0372815E2,-1.7160106E3,-4.2054155E3,-5.49048E2,-2.534863E3,2.861875E2,-2.99235E3,9.120054E2,4.1660625E3,4.067672E3,-5.6213066E3,-1.1349751E3,4.626238E3,2.4553088E4,-2.0308932E3,-1.2875428E4,-3.721031E3,-4.4918495E1,-3.6181035E3,1.0320754E3,-6.759138E3,-9.273643E3,-4.1382812E3,1.4586238E3,-1.3099127E3,1.2945713E4,1.5208607E2,5.0253174E3,1.9601907E3,1.4240577E3,7.493403E3,1.8693389E4,4.607071E3,3.42153E3,-7.506375E2,2.1108E4,2.9993625E3],"split_indices":[28,28,8,1,8,17,1,27,1,9,28,8,8,27,28,1,20,7,0,25,10,1,1,0,4,16,28,27,25,9,1,0,0,1,25,0,0,1,8,1,28,0,0,10,25,19,8,25,8,27,9,27,27,12,19,8,10,1,6,0,0,0,0,0,0,0,0,0,0,0,0,0,0,0,0,0,0,0,0,0,0,0,0,0,0,0,0,0,0,0,0,0,0,0,0,0,0,0,0,0,0,0,0],"split_type":[0,0,0,0,0,0,0,0,0,0,0,0,0,0,0,0,0,0,0,0,0,0,0,0,0,0,0,0,0,0,0,0,0,0,0,0,0,0,0,0,0,0,0,0,0,0,0,0,0,0,0,0,0,0,0,0,0,0,0,0,0,0,0,0,0,0,0,0,0,0,0,0,0,0,0,0,0,0,0,0,0,0,0,0,0,0,0,0,0,0,0,0,0,0,0,0,0,0,0,0,0,0,0],"sum_hessian":[1.501E3,2.28E2,1.273E3,4E1,1.88E2,4.14E2,8.59E2,3.1E1,9E0,1.67E2,2.1E1,1.5E1,3.99E2,5.21E2,3.38E2,1.1E1,2E1,7E0,2E0,7E0,1.6E2,4E0,1.7E1,2E0,1.3E1,8.9E1,3.1E2,2.59E2,2.62E2,3.28E2,1E1,1E0,1E1,4E0,1.6E1,6E0,1E0,4E0,3E0,4.9E1,1.11E2,1E0,3E0,5E0,1.2E1,4E0,9E0,1.7E1,7.2E1,1.78E2,1.32E2,1.2E1,2.47E2,1.5E2,1.12E2,2.78E2,5E1,5E0,5E0,2E0,2E0,1.5E1,1E0,1E0,3E0,1E0,2E0,1.5E1,3.4E1,7.1E1,4E1,2E0,3E0,6E0,6E0,1E0,3E0,1E0,8E0,1E0,1.6E1,1E1,6.2E1,9.7E1,8.1E1,1.27E2,5E0,3E0,9E0,5E1,1.97E2,3E0,1.47E2,3.7E1,7.5E1,2.61E2,1.7E1,5E0,4.5E1,4E0,1E0,4E0,1E0],"tree_param":{"num_deleted":"0","num_feature":"32","num_nodes":"103","size_leaf_vector":"1"}},{"base_weights":[1.4533028E2,-2.802758E3,3.0814802E3,2.70113E4,-3.2013245E3,-4.6375825E3,5.041439E3,5.0069543E4,-4.3481113E4,-3.679864E3,1.8712492E4,-1.0547896E4,6.393325E3,4.125071E3,1.930874E4,7.225623E4,9.818805E3,-2.0030626E3,-1.756344E4,-5.862268E3,3.4979285E2,1.8239701E4,4.323375E3,-2.7570157E2,-1.7110846E4,1.2660846E4,-1.434738E4,1.4942674E4,3.139393E3,1.5303258E4,4.752678E4,2.8326002E4,7.802113E3,6.1336064E3,-3.3091267E3,-4.636823E3,-1.2934616E4,5.5420375E4,-3.0202423E2,-2.765736E3,1.62191E4,7.6492153E3,-2.4959688E3,-3.5511473E4,-5.820455E3,6.5929785E3,3.7625156E4,-2.9054422E4,-7.029825E3,2.8338148E4,6.4073E3,1.4503236E4,2.1878481E3,-7.7506562E3,1.7867004E4,1.6819501E3,1.7889414E4,-2.617353E3,-9.100724E2,-7.58138E3,-2.711935E3,2.4403633E4,5.3553754E2,-1.7229719E4,1.1378932E2,8.6517755E2,-2.358675E3,5.5091254E2,5.8067065E3,-9.5004376E2,3.3575735E3,8.1760126E2,-1.3972745E3,-1.4558205E4,-7.6003555E3,-7.565475E3,2.518475E2,-1.9261141E3,3.847485E3,6.9731255E1,1.2880132E4,-1.5299719E3,-1.0601788E4,-8.678732E2,-3.7535908E3,2.4199502E3,9.556414E3,3.6160776E3,-9.199813E2,-5.7503625E2,5.799652E3,-8.870457E2,1.1437262E3,-8.0748755E2,-3.4391626E3,-3.4885315E2,6.00735E3],"categories":[],"categories_nodes":[],"categories_segments":[],"categories_sizes":[],"default_left":[0,0,0,0,0,0,0,0,0,0,0,0,0,0,0,0,0,0,0,0,0,0,0,0,0,0,0,0,0,0,0,0,0,0,0,0,0,0,0,0,0,0,0,0,0,0,0,0,0,0,0,0,0,0,0,0,0,0,0,0,0,0,0,0,0,0,0,0,0,0,0,0,0,0,0,0,0,0,0,0,0,0,0,0,0,0,0,0,0,0,0,0,0,0,0,0,0],"id":14,"left_children":[1,3,5,7,9,11,13,15,17,19,21,23,25,27,29,31,33,-1,-1,35,37,-1,39,41,43,45,47,49,51,53,55,-1,-1,-1,-1,57,59,61,63,65,67,69,71,73,75,77,79,81,83,85,87,89,91,93,95,-1,-1,-1,-1,-1,-1,-1,-1,-1,-1,-1,-1,-1,-1,-1,-1,-1,-1,-1,-1,-1,-1,-1,-1,-1,-1,-1,-1,-1,-1,-1,-1,-1,-1,-1,-1,-1,-1,-1,-1,-1,-1],"loss_changes":[1.3009992E10,8.998637E9,1.1415551E10,1.843139E10,7.8394516E9,1.0042445E10,7.777882E9,6.434775E9,1.2723256E9,6.386741E9,9.426546E9,6.7368735E9,7.2012605E9,5.9881595E9,3.341652E9,2.669695E9,1.1117422E9,0E0,0E0,4.0220754E9,9.2061E9,0E0,1.1411492E9,7.229095E8,1.2466072E10,6.1141023E9,1.194807E9,5.192192E9,5.591138E9,2.0889257E9,1.6953887E9,0E0,0E0,0E0,0E0,2.6146263E9,3.0869484E9,4.02628E9,9.908526E9,2.8181632E8,1.9001907E8,3.8030374E8,3.7385965E8,1.8172109E9,5.0595133E9,2.9208023E9,1.5780495E9,4.219771E8,1.9059558E8,1.0262026E9,1.6417363E9,3.208705E9,4.0314153E9,4.4284704E7,1.2549908E9,0E0,0E0,0E0,0E0,0E0,0E0,0E0,0E0,0E0,0E0,0E0,0E0,0E0,0E0,0E0,0E0,0E0,0E0,0E0,0E0,0E0,0E0,0E0,0E0,0E0,0E0,0E0,0E0,0E0,0E0,0E0,0E0,0E0,0E0,0E0,0E0,0E0,0E0,0E0,0E0,0E0,0E0],"parents":[2147483647,0,0,1,1,2,2,3,3,4,4,5,5,6,6,7,7,8,8,9,9,10,10,11,11,12,12,13,13,14,14,15,15,16,16,19,19,20,20,22,22,23,23,24,24,25,25,26,26,27,27,28,28,29,29,30,30,35,35,36,36,37,37,38,38,39,39,40,40,41,41,42,42,43,43,44,44,45,45,46,46,47,47,48,48,49,49,50,50,51,51,52,52,53,53,54,54],"right_children":[2,4,6,8,10,12,14,16,18,20,22,24,26,28,30,32,34,-1,-1,36,38,-1,40,42,44,46,48,50,52,54,56,-1,-1,-1,-1,58,60,62,64,66,68,70,72,74,76,78,80,82,84,86,88,90,92,94,96,-1,-1,-1,-1,-1,-1,-1,-1,-1,-1,-1,-1,-1,-1,-1,-1,-1,-1,-1,-1,-1,-1,-1,-1,-1,-1,-1,-1,-1,-1,-1,-1,-1,-1,-1,-1,-1,-1,-1,-1,-1,-1],"split_conditions":[-1.7925844E-2,-1.2220184E0,-6.437356E-1,1.0181655E-2,1.3875E6,3.4692811E-3,5.744502E-1,9.3111E4,9.0046E4,4E0,-1.638083E-1,8E5,-7.100959E-1,-1.4680712E-1,1.162213E0,2.058799E-1,9.3901E4,-2.0030626E3,-1.756344E4,-2.0448413E-2,-2.628423E-1,1.8239701E4,1.3612939E0,-1.5776988E-2,9.3105E4,-7.669762E-1,1.5054414E-2,8.06E5,4.5E1,9.0278E4,3.5E1,2.8326002E4,7.802113E3,6.1336064E3,-3.3091267E3,-5.6789523E-1,1.11E2,9.3003E4,-2.218887E-1,3.4E1,-1.6045831E-1,-9.115468E-1,-9.45912E-1,-7.8593624E-1,-1.2320133E-2,-1.5363272E-1,8.762595E-3,9.1011E4,1.37E2,-2.560167E-1,5.9918505E-3,1.671374E-2,2.19E2,9.0277E4,8.4E1,1.6819501E3,1.7889414E4,-2.617353E3,-9.100724E2,-7.58138E3,-2.711935E3,2.4403633E4,5.3553754E2,-1.7229719E4,1.1378932E2,8.6517755E2,-2.358675E3,5.5091254E2,5.8067065E3,-9.5004376E2,3.3575735E3,8.1760126E2,-1.3972745E3,-1.4558205E4,-7.6003555E3,-7.565475E3,2.518475E2,-1.9261141E3,3.847485E3,6.9731255E1,1.2880132E4,-1.5299719E3,-1.0601788E4,-8.678732E2,-3.7535908E3,2.4199502E3,9.556414E3,3.6160776E3,-9.199813E2,-5.7503625E2,5.799652E3,-8.870457E2,1.1437262E3,-8.0748755E2,-3.4391626E3,-3.4885315E2,6.00735E3],"split_indices":[28,8,8,10,27,28,8,1,1,6,8,27,8,10,8,9,1,0,0,28,10,0,8,28,1,8,28,27,21,1,4,0,0,0,0,8,21,1,10,4,10,8,8,8,28,10,25,1,20,10,28,25,21,1,21,0,0,0,0,0,0,0,0,0,0,0,0,0,0,0,0,0,0,0,0,0,0,0,0,0,0,0,0,0,0,0,0,0,0,0,0,0,0,0,0,0,0],"split_type":[0,0,0,0,0,0,0,0,0,0,0,0,0,0,0,0,0,0,0,0,0,0,0,0,0,0,0,0,0,0,0,0,0,0,0,0,0,0,0,0,0,0,0,0,0,0,0,0,0,0,0,0,0,0,0,0,0,0,0,0,0,0,0,0,0,0,0,0,0,0,0,0,0,0,0,0,0,0,0,0,0,0,0,0,0,0,0,0,0,0,0,0,0,0,0,0,0],"sum_hessian":[1.501E3,7.49E2,7.52E2,9E0,7.4E2,1.52E2,6E2,7E0,2E0,7.25E2,1.5E1,9.9E1,5.3E1,5.65E2,3.5E1,4E0,3E0,1E0,1E0,4.7E2,2.55E2,3E0,1.2E1,3.9E1,6E1,4.1E1,1.2E1,4.6E1,5.19E2,3.2E1,3E0,2E0,2E0,2E0,1E0,4.02E2,6.8E1,2E0,2.53E2,8E0,4E0,8E0,3.1E1,2.2E1,3.8E1,3.4E1,7E0,3E0,9E0,1.7E1,2.9E1,3.9E1,4.8E2,3E0,2.9E1,1E0,2E0,1.12E2,2.9E2,1.5E1,5.3E1,1E0,1E0,2E0,2.51E2,4E0,4E0,1E0,3E0,2E0,6E0,9E0,2.2E1,8E0,1.4E1,9E0,2.9E1,1.1E1,2.3E1,1E0,6E0,1E0,2E0,6E0,3E0,3E0,1.4E1,1.8E1,1.1E1,9E0,3E1,1.15E2,3.65E2,2E0,1E0,3E0,2.6E1],"tree_param":{"num_deleted":"0","num_feature":"32","num_nodes":"97","size_leaf_vector":"1"}},{"base_weights":[1.337482E2,-2.9543018E3,1.7432744E3,-8.455956E3,-1.8928892E3,-9.885651E2,4.8055254E3,-5.138546E3,-1.8005521E4,-2.0917273E2,-6.039893E3,-1.5554409E3,1.8313324E4,4.10894E3,3.6158926E4,-1.4508498E4,-3.5118528E3,-2.0120824E4,-3.9852812E3,-2.3939634E3,9.286973E3,-2.3048528E3,-1.8324686E4,-1.7397646E2,-7.496804E3,5.261482E3,2.6429945E4,1.197633E3,9.063133E3,4.33245E3,1.4469089E4,-7.696196E3,-2.2977656E3,-6.507814E3,-1.7498784E3,-2.5199582E4,-1.2242113E4,-1.5381938E3,-8.387813E1,1.2228045E4,-2.8003052E3,2.4455127E3,1.3103868E4,5.273124E3,-5.456396E3,-2.3958818E4,2.8052769E3,1.9298818E4,-7.0374567E2,-1.3564262E4,-5.7939395E3,1.61264375E4,-6.9188438E3,1.2622139E4,1.5949732E4,-7.6773315E2,6.6187417E3,2.2947154E4,6.261614E3,-6.79625E1,-2.1579443E3,1.9198837E2,-1.9748666E3,-7.940412E3,-2.0675205E3,-1.6050868E3,-4.438893E3,1.2321976E3,6.505969E3,-4.5862456E3,-6.784814E2,2.1396782E3,-1.9943485E3,6.941963E3,2.9972412E3,2.783939E2,5.639017E3,-2.1773635E3,2.7561423E3,7.594144E2,-8.900681E3,-2.7171235E3,4.189894E3,1.0772126E4,-1.1087678E4,2.1774026E2,-2.0063468E3,4.1242993E3,-2.2633176E3,5.7354004E3,1.0727626E3,-3.3727688E3,-5.19025E2,5.364825E3,6.527438E2,-5.594516E3,6.1485363E1,3.1736377E3,7.466942E2,2.0559875E4,5.041403E3,-1.5317827E4,2.359828E3],"categories":[],"categories_nodes":[],"categories_segments":[],"categories_sizes":[],"default_left":[0,0,0,0,0,0,0,0,0,0,0,0,0,0,0,0,0,0,0,0,0,0,0,0,0,0,0,0,0,0,0,0,0,0,0,0,0,0,0,0,0,0,0,0,0,0,0,0,0,0,0,0,0,0,0,0,0,0,0,0,0,0,0,0,0,0,0,0,0,0,0,0,0,0,0,0,0,0,0,0,0,0,0,0,0,0,0,0,0,0,0,0,0,0,0,0,0,0,0,0,0,0,0],"id":15,"left_children":[1,3,5,7,9,11,13,15,17,19,21,23,25,27,29,31,33,35,37,39,41,43,45,47,49,51,53,55,57,-1,-1,-1,-1,59,61,63,65,-1,-1,67,69,71,73,75,77,79,81,83,85,-1,87,89,91,-1,93,95,97,99,101,-1,-1,-1,-1,-1,-1,-1,-1,-1,-1,-1,-1,-1,-1,-1,-1,-1,-1,-1,-1,-1,-1,-1,-1,-1,-1,-1,-1,-1,-1,-1,-1,-1,-1,-1,-1,-1,-1,-1,-1,-1,-1,-1,-1],"loss_changes":[7.4705367E9,2.9913492E9,8.2699407E9,2.5369037E9,3.0221066E9,5.751033E9,1.0029015E10,9.0929664E8,5.4261094E8,6.4330834E9,5.693289E9,4.1764567E9,1.4499922E9,6.580537E9,1.9250708E9,4.905573E8,2.789465E8,4.1175706E8,1.5494476E7,1.5315087E9,1.4825165E9,2.3453573E9,3.5196314E9,4.2844413E9,5.9038833E9,1.03794714E9,8.044918E8,3.0842214E9,6.4297974E9,0E0,0E0,0E0,0E0,8.446573E7,4.2001702E8,4.9816576E7,7.926323E7,0E0,0E0,4.4859603E8,1.6202314E9,9.850143E8,9.247954E8,1.686655E9,1.886904E9,3.554134E9,1.05326714E9,1.1604869E10,3.4608783E9,0E0,3.284936E9,8.181952E7,7.028838E7,0E0,1.4746714E8,3.7083674E9,1.2329324E9,6.688594E9,1.3461432E10,0E0,0E0,0E0,0E0,0E0,0E0,0E0,0E0,0E0,0E0,0E0,0E0,0E0,0E0,0E0,0E0,0E0,0E0,0E0,0E0,0E0,0E0,0E0,0E0,0E0,0E0,0E0,0E0,0E0,0E0,0E0,0E0,0E0,0E0,0E0,0E0,0E0,0E0,0E0,0E0,0E0,0E0,0E0,0E0],"parents":[2147483647,0,0,1,1,2,2,3,3,4,4,5,5,6,6,7,7,8,8,9,9,10,10,11,11,12,12,13,13,14,14,15,15,16,16,17,17,18,18,19,19,20,20,21,21,22,22,23,23,24,24,25,25,26,26,27,27,28,28,33,33,34,34,35,35,36,36,39,39,40,40,41,41,42,42,43,43,44,44,45,45,46,46,47,47,48,48,50,50,51,51,52,52,54,54,55,55,56,56,57,57,58,58],"right_children":[2,4,6,8,10,12,14,16,18,20,22,24,26,28,30,32,34,36,38,40,42,44,46,48,50,52,54,56,58,-1,-1,-1,-1,60,62,64,66,-1,-1,68,70,72,74,76,78,80,82,84,86,-1,88,90,92,-1,94,96,98,100,102,-1,-1,-1,-1,-1,-1,-1,-1,-1,-1,-1,-1,-1,-1,-1,-1,-1,-1,-1,-1,-1,-1,-1,-1,-1,-1,-1,-1,-1,-1,-1,-1,-1,-1,-1,-1,-1,-1,-1,-1,-1,-1,-1,-1],"split_conditions":[-2.427898E-2,-4.950467E-2,-1.9224843E-1,5.09E5,-2.7735835E-2,3.822468E-2,1.8791553E-2,2.199E5,-5.09061E-2,-3.0071545E-2,6.4E1,8.1E1,2.4892597E-1,9.2886E4,-1.21148095E-1,-9.220233E-2,2.589E5,7.3E1,4E0,5E0,-3.6525926E-1,8.05E5,4E0,-1.2220184E0,-1.155658E0,-3.3820808E-1,3.381444E-1,2.971589E-1,9.303E4,4.33245E3,1.4469089E4,-7.696196E3,-2.2977656E3,-6.5795565E-1,5E0,9.3907E4,4.430965E-2,-1.5381938E3,-8.387813E1,3.4979586E-2,-1.5404785E0,-5.2642E-1,1.07E2,-3.522242E-1,1.2096132E0,7.78E5,9.60762E-1,1.0181655E-2,-3.4274414E-1,-1.3564262E4,9.928397E-3,9.501E4,9.0254E4,1.2622139E4,3.3560563E-3,3.1E1,4.689847E-1,-2.491911E-1,9.3101E4,-6.79625E1,-2.1579443E3,1.9198837E2,-1.9748666E3,-7.940412E3,-2.0675205E3,-1.6050868E3,-4.438893E3,1.2321976E3,6.505969E3,-4.5862456E3,-6.784814E2,2.1396782E3,-1.9943485E3,6.941963E3,2.9972412E3,2.783939E2,5.639017E3,-2.1773635E3,2.7561423E3,7.594144E2,-8.900681E3,-2.7171235E3,4.189894E3,1.0772126E4,-1.1087678E4,2.1774026E2,-2.0063468E3,4.1242993E3,-2.2633176E3,5.7354004E3,1.0727626E3,-3.3727688E3,-5.19025E2,5.364825E3,6.527438E2,-5.594516E3,6.1485363E1,3.1736377E3,7.466942E2,2.0559875E4,5.041403E3,-1.5317827E4,2.359828E3],"split_indices":[28,28,8,27,28,28,28,27,28,28,4,4,9,1,8,10,27,4,6,24,8,27,6,8,8,9,9,8,1,0,0,0,0,8,12,1,10,0,0,25,9,8,21,8,8,27,8,10,8,0,25,1,1,0,10,17,8,10,1,0,0,0,0,0,0,0,0,0,0,0,0,0,0,0,0,0,0,0,0,0,0,0,0,0,0,0,0,0,0,0,0,0,0,0,0,0,0,0,0,0,0,0,0],"split_type":[0,0,0,0,0,0,0,0,0,0,0,0,0,0,0,0,0,0,0,0,0,0,0,0,0,0,0,0,0,0,0,0,0,0,0,0,0,0,0,0,0,0,0,0,0,0,0,0,0,0,0,0,0,0,0,0,0,0,0,0,0,0,0,0,0,0,0,0,0,0,0,0,0,0,0,0,0,0,0,0,0,0,0,0,0,0,0,0,0,0,0,0,0,0,0,0,0,0,0,0,0,0,0],"sum_hessian":[1.501E3,5.14E2,9.87E2,8.2E1,4.32E2,5.22E2,4.65E2,6.2E1,2E1,3.08E2,1.24E2,5.08E2,1.4E1,4.56E2,9E0,8E0,5.4E1,1.7E1,3E0,2.51E2,5.7E1,9.6E1,2.8E1,4.13E2,9.5E1,6E0,8E0,2.88E2,1.68E2,4E0,5E0,2E0,6E0,1.9E1,3.5E1,9E0,8E0,2E0,1E0,6E0,2.45E2,2.1E1,3.6E1,2.8E1,6.8E1,2.2E1,6E0,1E1,4.03E2,3E0,9.2E1,3E0,3E0,2E0,6E0,2.12E2,7.6E1,2.7E1,1.41E2,2E0,1.7E1,2.4E1,1.1E1,8E0,1E0,3E0,5E0,4E0,2E0,9E0,2.36E2,1.4E1,7E0,7E0,2.9E1,2.2E1,6E0,6.1E1,7E0,4E0,1.8E1,3E0,3E0,8E0,2E0,3.26E2,7.7E1,7E0,8.5E1,2E0,1E0,1E0,2E0,5E0,1E0,1E1,2.02E2,3.8E1,3.8E1,2E0,2.5E1,3E0,1.38E2],"tree_param":{"num_deleted":"0","num_feature":"32","num_nodes":"103","size_leaf_vector":"1"}},{"base_weights":[1.0579619E2,-6.096252E3,5.858789E2,2.3193725E4,-7.7432773E3,-1.4542441E3,2.4040564E3,1.5754163E4,6.826919E3,-3.8962285E3,-1.4221223E4,-2.352399E3,5.7755225E3,2.1237166E3,2.771961E4,-1.02384064E3,4.4373003E3,-1.3163419E3,-2.008925E4,-4.296648E3,-1.9831531E4,-3.6582117E3,2.9132803E3,1.2954429E4,2.9812463E3,2.4363813E3,-1.4063214E4,1.2578888E4,1.0807675E4,1.7207914E4,-4.624381E3,-1.2115195E4,-3.2112188E3,-1.4252844E4,3.9244653E3,-1.1958573E4,-7.3249727E3,-4.101451E3,2.2451555E4,8.1252747E2,1.3705977E4,8.996413E3,1.7274907E3,8.1310327E3,1.5969167E3,-2.7733062E4,3.5685E3,1.4213375E3,3.9825002E3,1.50054E4,2.0563208E3,-4.2539795E3,-6.542908E2,-3.1576501E3,1.0702125E2,-9.505922E2,-4.6716313E3,-2.7109875E3,2.002254E3,-4.992003E3,-2.1585E1,-8.880867E2,-3.653339E3,1.690879E4,5.2622815E2,-4.059365E1,4.6579785E3,4.953813E2,5.3679844E3,-3.6619126E3,8.4177985E2,1.6147432E3,7.8018594E3,1.8755289E3,9.2089676E1,-1.0309334E4,2.802994E3,-8.490876E2,2.0082227E3],"categories":[],"categories_nodes":[],"categories_segments":[],"categories_sizes":[],"default_left":[0,0,0,0,0,0,0,0,0,0,0,0,0,0,0,0,0,0,0,0,0,0,0,0,0,0,0,0,0,0,0,0,0,0,0,0,0,0,0,0,0,0,0,0,0,0,0,0,0,0,0,0,0,0,0,0,0,0,0,0,0,0,0,0,0,0,0,0,0,0,0,0,0,0,0,0,0,0,0],"id":16,"left_children":[1,3,5,7,9,11,13,-1,15,17,19,21,23,25,27,-1,-1,29,31,33,35,37,39,-1,41,43,45,-1,47,49,51,-1,53,55,57,-1,59,61,63,65,67,-1,69,71,73,75,77,-1,-1,-1,-1,-1,-1,-1,-1,-1,-1,-1,-1,-1,-1,-1,-1,-1,-1,-1,-1,-1,-1,-1,-1,-1,-1,-1,-1,-1,-1,-1,-1],"loss_changes":[4.475771E9,5.389659E9,5.177978E9,2.5207552E9,2.5114511E9,4.2862756E9,5.1786885E9,0E0,4.5822858E8,2.7307822E9,2.0306273E9,4.0399885E9,7.501402E9,3.7339151E9,1.4693888E9,0E0,0E0,3.6337554E9,2.9531346E9,1.2837001E9,5.720278E9,5.531338E9,2.6415795E9,0E0,2.2845307E9,3.4193843E9,3.473285E9,0E0,1.1987712E7,2.7144532E9,1.1364813E9,0E0,1.6033706E8,5.301811E7,3.8106573E8,0E0,1.0797974E9,4.2311547E9,5.516118E9,1.3828119E9,9.2951066E8,0E0,1.04105024E9,4.380064E9,3.762918E9,2.2880195E9,1.589455E8,0E0,0E0,0E0,0E0,0E0,0E0,0E0,0E0,0E0,0E0,0E0,0E0,0E0,0E0,0E0,0E0,0E0,0E0,0E0,0E0,0E0,0E0,0E0,0E0,0E0,0E0,0E0,0E0,0E0,0E0,0E0,0E0],"parents":[2147483647,0,0,1,1,2,2,3,3,4,4,5,5,6,6,8,8,9,9,10,10,11,11,12,12,13,13,14,14,17,17,18,18,19,19,20,20,21,21,22,22,24,24,25,25,26,26,28,28,29,29,30,30,32,32,33,33,34,34,36,36,37,37,38,38,39,39,40,40,42,42,43,43,44,44,45,45,46,46],"right_children":[2,4,6,8,10,12,14,-1,16,18,20,22,24,26,28,-1,-1,30,32,34,36,38,40,-1,42,44,46,-1,48,50,52,-1,54,56,58,-1,60,62,64,66,68,-1,70,72,74,76,78,-1,-1,-1,-1,-1,-1,-1,-1,-1,-1,-1,-1,-1,-1,-1,-1,-1,-1,-1,-1,-1,-1,-1,-1,-1,-1,-1,-1,-1,-1,-1,-1],"split_conditions":[-8.570366E-1,2.6E1,-1.932727E-2,-1.5404555E0,9.3901E4,1.066E6,9.60762E-1,1.5754163E4,3.5E1,8.1E1,-2.7735835E-2,2.4907762E-1,-1.638083E-1,3.5E0,3.7656136E-2,-1.02384064E3,4.4373003E3,-1.8776071E-1,1.2429872E-2,-4.034868E-2,-1.2320133E-2,4E0,-2.558698E-2,1.2954429E4,1.6E1,-1.0585353E-1,1.32E6,1.2578888E4,9.3901E4,5.394718E-3,5.3E1,-1.2115195E4,-1.2220184E0,-1.0454525E0,-1.2220184E0,-1.1958573E4,-1.0347874E0,-2.0448413E-2,-1.638083E-1,8.3E1,-4.175272E-2,8.996413E3,3.3E1,9.573826E-1,-4.9318463E-1,4.795696E-4,-2.628423E-1,1.4213375E3,3.9825002E3,1.50054E4,2.0563208E3,-4.2539795E3,-6.542908E2,-3.1576501E3,1.0702125E2,-9.505922E2,-4.6716313E3,-2.7109875E3,2.002254E3,-4.992003E3,-2.1585E1,-8.880867E2,-3.653339E3,1.690879E4,5.2622815E2,-4.059365E1,4.6579785E3,4.953813E2,5.3679844E3,-3.6619126E3,8.4177985E2,1.6147432E3,7.8018594E3,1.8755289E3,9.2089676E1,-1.0309334E4,2.802994E3,-8.490876E2,2.0082227E3],"split_indices":[8,17,28,9,1,27,8,0,4,4,28,10,8,7,25,0,0,10,25,28,28,7,28,0,17,10,27,0,1,25,17,0,8,8,8,0,8,28,8,4,8,0,20,9,9,28,10,0,0,0,0,0,0,0,0,0,0,0,0,0,0,0,0,0,0,0,0,0,0,0,0,0,0,0,0,0,0,0,0],"split_type":[0,0,0,0,0,0,0,0,0,0,0,0,0,0,0,0,0,0,0,0,0,0,0,0,0,0,0,0,0,0,0,0,0,0,0,0,0,0,0,0,0,0,0,0,0,0,0,0,0,0,0,0,0,0,0,0,0,0,0,0,0,0,0,0,0,0,0,0,0,0,0,0,0,0,0,0,0,0,0],"sum_hessian":[1.501E3,1.07E2,1.394E3,5E0,1.02E2,6.57E2,7.37E2,1E0,4E0,6.5E1,3.7E1,5.85E2,7.2E1,7.3E2,7E0,2E0,2E0,5.7E1,8E0,1.4E1,2.3E1,4.69E2,1.16E2,4E0,6.8E1,7.17E2,1.3E1,3E0,4E0,8E0,4.9E1,3E0,5E0,6E0,8E0,8E0,1.5E1,4.62E2,7E0,9.8E1,1.8E1,2E0,6.6E1,9.1E1,6.26E2,7E0,6E0,2E0,2E0,1E0,7E0,9E0,4E1,1E0,4E0,1E0,5E0,1E0,7E0,6E0,9E0,4.06E2,5.6E1,2E0,5E0,9.3E1,5E0,5E0,1.3E1,4E0,6.2E1,8E1,1.1E1,1.35E2,4.91E2,6E0,1E0,2E0,4E0],"tree_param":{"num_deleted":"0","num_feature":"32","num_nodes":"79","size_leaf_vector":"1"}},{"base_weights":[1.1291848E2,-1.5550685E2,7.4545E3,-4.0504468E2,8.219596E3,-3.9390312E3,1.0532307E4,7.6050107E3,-6.5671063E2,4.529045E3,4.2147562E4,2.0983032E3,-8.360639E3,2.535533E4,5.107758E3,3.1894434E3,2.985801E4,-3.0941045E4,-5.0046738E2,1.0502841E2,9.6845625E3,-6.6675E1,1.6903477E4,-1.0665469E4,1.5117001E3,2.9611501E3,2.9928328E4,-1.50315E2,2.0900766E4,1.2754595E4,9.160773E2,1.7674688E3,1.5145215E4,-6.4245E3,-1.4316699E4,-5.935711E3,-1.6090422E2,5.837146E3,-6.157739E3,-3.1591875E3,1.2463925E4,5.84E2,-1.4512625E4,9.997825E3,3.9470125E3,-5.0215156E3,7.6586377E3,6.9250825E3,8.431313E2,-7.12896E2,4.468645E3,1.251675E3,-8.170313E2,-4.2401157E3,2.5694376E2,-7.905328E2,-3.6951223E3,-1.2500884E3,9.076346E1,3.4626626E3,3.3964287E1,-4.0300876E3,-2.4300001E1,-2.0555813E3,1.0671251E2,5.417956E3,2.3579927E3,2.7933752E2,-1.65375E1,-4.933335E3,-7.28025E2,1.2317893E3,-3.27258E3,2.7972324E2,5.254463E3],"categories":[],"categories_nodes":[],"categories_segments":[],"categories_sizes":[],"default_left":[0,0,0,0,0,0,0,0,0,0,0,0,0,0,0,0,0,0,0,0,0,0,0,0,0,0,0,0,0,0,0,0,0,0,0,0,0,0,0,0,0,0,0,0,0,0,0,0,0,0,0,0,0,0,0,0,0,0,0,0,0,0,0,0,0,0,0,0,0,0,0,0,0,0,0],"id":17,"left_children":[1,3,5,7,9,11,13,15,17,19,21,-1,23,25,27,29,31,33,35,37,39,-1,-1,41,-1,-1,43,45,47,-1,49,51,-1,53,-1,55,57,59,61,63,65,67,69,-1,-1,71,73,-1,-1,-1,-1,-1,-1,-1,-1,-1,-1,-1,-1,-1,-1,-1,-1,-1,-1,-1,-1,-1,-1,-1,-1,-1,-1,-1,-1],"loss_changes":[2.9611005E9,3.033691E9,1.9000428E9,2.8453384E9,5.0680525E9,6.385943E8,3.2476355E9,4.1299333E9,6.4527795E9,8.8849856E8,2.4186788E9,0E0,3.316983E8,4.8352614E8,2.660447E9,3.2689303E9,3.966547E9,2.5733412E9,2.5109181E9,8.2571974E8,6.8193E8,0E0,0E0,3.547031E8,0E0,0E0,1.7424896E7,9.894324E8,2.510313E8,0E0,1.6923235E9,5.456145E7,0E0,2.3662787E8,0E0,1.6525302E9,2.381426E9,3.9055792E8,4.8526218E8,5.4355816E7,2.4450048E8,7.16897E5,1.001801E8,0E0,0E0,9.045382E8,6.466218E8,0E0,0E0,0E0,0E0,0E0,0E0,0E0,0E0,0E0,0E0,0E0,0E0,0E0,0E0,0E0,0E0,0E0,0E0,0E0,0E0,0E0,0E0,0E0,0E0,0E0,0E0,0E0,0E0],"parents":[2147483647,0,0,1,1,2,2,3,3,4,4,5,5,6,6,7,7,8,8,9,9,10,10,12,12,13,13,14,14,15,15,16,16,17,17,18,18,19,19,20,20,23,23,26,26,27,27,28,28,30,30,31,31,33,33,35,35,36,36,37,37,38,38,39,39,40,40,41,41,42,42,45,45,46,46],"right_children":[2,4,6,8,10,12,14,16,18,20,22,-1,24,26,28,30,32,34,36,38,40,-1,-1,42,-1,-1,44,46,48,-1,50,52,-1,54,-1,56,58,60,62,64,66,68,70,-1,-1,72,74,-1,-1,-1,-1,-1,-1,-1,-1,-1,-1,-1,-1,-1,-1,-1,-1,-1,-1,-1,-1,-1,-1,-1,-1,-1,-1,-1,-1],"split_conditions":[1.5E6,2.9722687E-2,1.26E2,-2.491911E-1,-2.7638382E-1,-3.6960417E-1,6.8E1,8.3E1,-2.423655E-1,2.4892597E-1,9.311E4,2.0983032E3,7.604961E-1,-1.5404955E0,1.1898475E0,5.394718E-3,9.3001E4,9.3003E4,-4.950467E-2,8.7E1,3E0,-6.6675E1,1.6903477E4,-1.1950472E-1,1.5117001E3,2.9611501E3,9.1384E4,2.749554E-2,3.5E0,1.2754595E4,1.751033E-1,9.0066E4,1.5145215E4,2.23E2,-1.4316699E4,3.3E1,1.5E0,1.5E0,3.57E2,9.0291E4,4.9679494E-1,9.0046E4,6.9E1,9.997825E3,3.9470125E3,1.40457E-2,4.9679494E-1,6.9250825E3,8.431313E2,-7.12896E2,4.468645E3,1.251675E3,-8.170313E2,-4.2401157E3,2.5694376E2,-7.905328E2,-3.6951223E3,-1.2500884E3,9.076346E1,3.4626626E3,3.3964287E1,-4.0300876E3,-2.4300001E1,-2.0555813E3,1.0671251E2,5.417956E3,2.3579927E3,2.7933752E2,-1.65375E1,-4.933335E3,-7.28025E2,1.2317893E3,-3.27258E3,2.7972324E2,5.254463E3],"split_indices":[27,28,20,10,8,9,17,4,10,9,1,0,8,9,9,25,1,1,28,20,6,0,0,10,0,0,1,25,7,0,8,1,0,21,0,24,7,7,21,1,9,1,4,0,0,25,9,0,0,0,0,0,0,0,0,0,0,0,0,0,0,0,0,0,0,0,0,0,0,0,0,0,0,0,0],"split_type":[0,0,0,0,0,0,0,0,0,0,0,0,0,0,0,0,0,0,0,0,0,0,0,0,0,0,0,0,0,0,0,0,0,0,0,0,0,0,0,0,0,0,0,0,0,0,0,0,0,0,0,0,0,0,0,0,0,0,0,0,0,0,0,0,0,0,0,0,0,0,0,0,0,0,0],"sum_hessian":[1.501E3,1.449E3,5.2E1,1.408E3,4.1E1,1.1E1,4.1E1,4.2E1,1.366E3,3.8E1,3E0,3E0,8E0,1E1,3.1E1,3.6E1,6E0,6E0,1.36E3,2.1E1,1.7E1,1E0,2E0,7E0,1E0,3E0,7E0,2.4E1,7E0,1E0,3.5E1,3E0,3E0,3E0,3E0,7.9E1,1.281E3,1.1E1,1E1,3E0,1.4E1,2E0,5E0,5E0,2E0,1.5E1,9E0,6E0,1E0,2.9E1,6E0,2E0,1E0,1E0,2E0,5.3E1,2.6E1,1.32E2,1.149E3,5E0,6E0,4E0,6E0,1E0,2E0,5E0,9E0,1E0,1E0,4E0,1E0,6E0,9E0,6E0,3E0],"tree_param":{"num_deleted":"0","num_feature":"32","num_nodes":"75","size_leaf_vector":"1"}},{"base_weights":[1.1675491E2,-1.7824643E4,2.0062726E2,4.096594E2,-2.1250594E4,-1.5591584E3,1.0361111E3,-2.6840625E2,-7.5428516E3,8.944237E3,-1.9389838E3,7.1323346E2,1.3290447E4,1.3377432E4,3.9293223E3,-4.978439E3,-1.0842894E3,6.5887666E3,2.9323517E2,8.519479E3,1.1220272E4,-6.0574844E3,6.69993E3,-7.044036E3,2.853007E3,-7.514157E3,-5.484296E2,1.0935566E3,1.6159819E4,-3.4930383E2,5.845466E3,-2.123325E3,1.0871822E4,-2.5478687E3,1.873125E2,-3.990924E2,4.131911E3,-2.8865288E3,2.3372234E2,1.08414E4,-1.3585492E2,4.923694E3,-3.312548E3,-1.6325511E3,1.2654452E2,-1.3021931E3,2.8980056E3,1.1077833E3,7.440363E3,-1.3671028E3,1.1885439E2,4.5580083E3,9.556744E2,3.524375E2,-1.4141E3,1.3630923E3,4.2553877E3],"categories":[],"categories_nodes":[],"categories_segments":[],"categories_sizes":[],"default_left":[0,0,0,0,0,0,0,0,0,0,0,0,0,0,0,0,0,0,0,0,0,0,0,0,0,0,0,0,0,0,0,0,0,0,0,0,0,0,0,0,0,0,0,0,0,0,0,0,0,0,0,0,0,0,0,0,0],"id":18,"left_children":[1,3,5,-1,7,9,11,-1,-1,13,15,17,19,-1,21,23,25,27,29,31,-1,33,35,37,39,41,43,45,47,49,51,53,55,-1,-1,-1,-1,-1,-1,-1,-1,-1,-1,-1,-1,-1,-1,-1,-1,-1,-1,-1,-1,-1,-1,-1,-1],"loss_changes":[2.2637665E9,4.8923034E8,2.2011433E9,0E0,4.52886E8,1.9402601E9,4.0065213E9,0E0,0E0,2.8638362E9,1.2051794E9,2.4411046E9,2.6721505E9,0E0,4.832972E8,1.6701112E9,1.2534892E9,3.453594E9,3.3020024E9,5.9890176E8,0E0,7.039507E7,7.567059E8,1.640929E9,2.4371443E9,2.5445524E9,1.6070528E9,2.043661E9,2.4940355E9,2.6053343E9,2.3385754E9,4.8253824E7,3.338665E8,0E0,0E0,0E0,0E0,0E0,0E0,0E0,0E0,0E0,0E0,0E0,0E0,0E0,0E0,0E0,0E0,0E0,0E0,0E0,0E0,0E0,0E0,0E0,0E0],"parents":[2147483647,0,0,1,1,2,2,4,4,5,5,6,6,9,9,10,10,11,11,12,12,14,14,15,15,16,16,17,17,18,18,19,19,21,21,22,22,23,23,24,24,25,25,26,26,27,27,28,28,29,29,30,30,31,31,32,32],"right_children":[2,4,6,-1,8,10,12,-1,-1,14,16,18,20,-1,22,24,26,28,30,32,-1,34,36,38,40,42,44,46,48,50,52,54,56,-1,-1,-1,-1,-1,-1,-1,-1,-1,-1,-1,-1,-1,-1,-1,-1,-1,-1,-1,-1,-1,-1,-1,-1],"split_conditions":[1E0,-8.7481165E-1,-4.3754458E-1,4.096594E2,1E0,2.6E1,2.1874694E-2,-2.6840625E2,-7.5428516E3,-1.5404555E0,-8.570366E-1,-3.7829432E-1,-1.4603321E-1,1.3377432E4,1.07E2,3E0,-1.539724E0,9.3035E4,9.9E1,2.1E1,1.1220272E4,9.303E4,5E0,4.795696E-4,5.394718E-3,1.07E2,1.4E2,9.01E5,-2.1289269E-2,-2.3490864E-1,-1.4603321E-1,6E1,2.23E2,-2.5478687E3,1.873125E2,-3.990924E2,4.131911E3,-2.8865288E3,2.3372234E2,1.08414E4,-1.3585492E2,4.923694E3,-3.312548E3,-1.6325511E3,1.2654452E2,-1.3021931E3,2.8980056E3,1.1077833E3,7.440363E3,-1.3671028E3,1.1885439E2,4.5580083E3,9.556744E2,3.524375E2,-1.4141E3,1.3630923E3,4.2553877E3],"split_indices":[12,8,8,0,4,17,28,0,0,9,8,8,8,0,21,6,9,1,4,19,0,1,12,28,25,21,21,27,28,8,8,4,21,0,0,0,0,0,0,0,0,0,0,0,0,0,0,0,0,0,0,0,0,0,0,0,0],"split_type":[0,0,0,0,0,0,0,0,0,0,0,0,0,0,0,0,0,0,0,0,0,0,0,0,0,0,0,0,0,0,0,0,0,0,0,0,0,0,0,0,0,0,0,0,0,0,0,0,0,0,0,0,0,0,0,0,0],"sum_hessian":[1.501E3,6E0,1.495E3,1E0,5E0,4.81E2,1.014E3,1E0,4E0,1.6E1,4.65E2,9.89E2,2.5E1,1E0,1.5E1,1.01E2,3.64E2,6.5E1,9.24E2,2.2E1,3E0,3E0,1.2E1,8E1,2.1E1,2.7E1,3.37E2,4.2E1,2.3E1,8.29E2,9.5E1,4E0,1.8E1,2E0,1E0,6E0,6E0,6E1,2E1,1E0,2E1,3E0,2.4E1,5.5E1,2.82E2,2.6E1,1.6E1,1E1,1.3E1,1.24E2,7.05E2,2E1,7.5E1,2E0,2E0,7E0,1.1E1],"tree_param":{"num_deleted":"0","num_feature":"32","num_nodes":"57","size_leaf_vector":"1"}},{"base_weights":[1.1214362E2,-1.2934907E4,2.1707486E2,-6.2964194E3,-4.184357E3,2.8303238E1,6.573191E3,-1.381622E3,-2.4870938E2,-8.266355E1,1.1408304E4,2.173411E3,2.0875125E4,-3.7655048E2,3.8474312E3,2.7075625E3,6.7674097E3,3.4365127E3,1.7812823E2,9.960338E3,1.0849536E4,1.4457703E3,-1.1954958E3,1.6476221E3,1.5293453E4,-4.2645063E3,9.573304E3,-4.1988584E3,5.8881777E3,1.3152375E3,3.7676626E3,1.7729874E2,2.3906763E3,-5.20112E3,-3.0527527E2,1.8590822E3,-8.197066E2,8.93054E3,1.0894801E3,4.1094414E3,-1.4775626E2,-3.7015315E3,-4.720038E2,3.6699167E3,-2.0130713E3],"categories":[],"categories_nodes":[],"categories_segments":[],"categories_sizes":[],"default_left":[0,0,0,0,0,0,0,0,0,0,0,0,0,0,0,0,0,0,0,0,0,0,0,0,0,0,0,0,0,0,0,0,0,0,0,0,0,0,0,0,0,0,0,0,0],"id":19,"left_children":[1,3,5,-1,7,9,11,-1,-1,13,15,17,19,21,23,25,-1,-1,27,-1,29,31,33,35,37,-1,39,41,43,-1,-1,-1,-1,-1,-1,-1,-1,-1,-1,-1,-1,-1,-1,-1,-1],"loss_changes":[2.0591107E9,7.5781325E8,1.7887967E9,0E0,6.071272E6,1.8307433E9,2.6604209E9,0E0,0E0,1.6600338E9,1.2970756E9,6.2762176E8,8.755374E8,1.9970417E9,2.4927084E9,1.1817594E9,0E0,0E0,7.495151E8,0E0,2.2301312E7,2.3092564E9,2.633004E9,1.7106346E9,2.59278E9,0E0,2.9738554E8,3.4388704E8,1.121247E9,0E0,0E0,0E0,0E0,0E0,0E0,0E0,0E0,0E0,0E0,0E0,0E0,0E0,0E0,0E0,0E0],"parents":[2147483647,0,0,1,1,2,2,4,4,5,5,6,6,9,9,10,10,11,11,12,12,13,13,14,14,15,15,18,18,20,20,21,21,22,22,23,23,24,24,26,26,27,27,28,28],"right_children":[2,4,6,-1,8,10,12,-1,-1,14,16,18,20,22,24,26,-1,-1,28,-1,30,32,34,36,38,-1,40,42,44,-1,-1,-1,-1,-1,-1,-1,-1,-1,-1,-1,-1,-1,-1,-1,-1],"split_conditions":[2.199E5,7.843764E-2,1.2096132E0,-6.2964194E3,2.559032E-1,6.767187E-2,-2.558698E-2,-1.381622E3,-2.4870938E2,1.3875E6,8.6352825E-1,1.4E1,5.9E1,1.09E0,6.478644E-2,1.4E1,6.7674097E3,3.4365127E3,2.559032E-1,9.960338E3,9.3901E4,1.0289561E-2,-1.155658E0,4.9E1,7.843764E-2,-4.2645063E3,7.1612045E-2,4.1E1,3.944369E-2,1.3152375E3,3.7676626E3,1.7729874E2,2.3906763E3,-5.20112E3,-3.0527527E2,1.8590822E3,-8.197066E2,8.93054E3,1.0894801E3,4.1094414E3,-1.4775626E2,-3.7015315E3,-4.720038E2,3.6699167E3,-2.0130713E3],"split_indices":[27,10,8,0,10,25,28,0,0,27,9,19,19,16,10,19,0,0,10,0,1,28,8,4,10,0,10,19,25,0,0,0,0,0,0,0,0,0,0,0,0,0,0,0,0],"split_type":[0,0,0,0,0,0,0,0,0,0,0,0,0,0,0,0,0,0,0,0,0,0,0,0,0,0,0,0,0,0,0,0,0,0,0,0,0,0,0,0,0,0,0,0,0],"sum_hessian":[1.501E3,1.1E1,1.49E3,5E0,6E0,1.448E3,4.2E1,5E0,1E0,1.435E3,1.3E1,3.3E1,9E0,1.336E3,9.9E1,8E0,5E0,5E0,2.8E1,3E0,6E0,4.14E2,9.22E2,8.4E1,1.5E1,2E0,6E0,1.6E1,1.2E1,2E0,4E0,3.67E2,4.7E1,9E0,9.13E2,4.1E1,4.3E1,6E0,9E0,4E0,2E0,3E0,1.3E1,8E0,4E0],"tree_param":{"num_deleted":"0","num_feature":"32","num_nodes":"45","size_leaf_vector":"1"}},{"base_weights":[9.355399E1,-1.341083E4,1.5668042E2,-4.191078E3,-5.783363E3,-2.239279E3,5.0067102E2,3.0947916E2,-2.6539126E3,-4.6036862E2,-5.6787246E3,2.681106E3,-1.2525008E2,3.9400314E2,-2.547375E2,-1.976208E3,6.3479717E3,-1.6772633E3,-1.2277941E4,-1.3220684E3,5.1433955E3,